booster[0]
0:[f0<2045.88501] yes=1,no=2,missing=1,gain=1.22136022e+12,cover=1920691
	1:[f0<555.811523] yes=3,no=4,missing=3,gain=1.54467107e+11,cover=1837329
		3:[f0<155.355011] yes=7,no=8,missing=7,gain=1.84404234e+10,cover=1671774
			7:[f1<2399.93359] yes=15,no=16,missing=15,gain=1.99091789e+09,cover=1409867
				15:[f1<63.0415001] yes=31,no=32,missing=31,gain=1.62112038e+09,cover=1409389
					31:[f0<26.862999] yes=63,no=64,missing=63,gain=270620448,cover=1266500
						63:leaf=0.464695841,cover=1138602
						64:leaf=5.31605673,cover=127898
					32:[f1<158.08551] yes=65,no=66,missing=66,gain=187511552,cover=142889
						65:leaf=10.1571932,cover=108653
						66:leaf=18.6443653,cover=34236
				16:[f0<0.5] yes=33,no=34,missing=34,gain=2.16212941e+09,cover=478
					33:[f3<4602.69922] yes=67,no=68,missing=68,gain=1.30618368e+09,cover=226
						67:leaf=285.55304,cover=168
						68:leaf=835.900818,cover=58
					34:[f6<1198.5] yes=69,no=70,missing=70,gain=2637972.75,cover=252
						69:leaf=46.5323486,cover=13
						70:leaf=1.86021459,cover=239
			8:[f1<372.231995] yes=17,no=18,missing=17,gain=2.92092928e+09,cover=261907
				17:[f1<238.3815] yes=35,no=36,missing=36,gain=605905920,cover=193864
					35:[f1<166.71051] yes=71,no=72,missing=72,gain=81790208,cover=94734
						71:leaf=15.8472767,cover=42850
						72:leaf=21.7520599,cover=51884
					36:[f0<343.87851] yes=73,no=74,missing=74,gain=246321152,cover=99130
						73:leaf=26.9976597,cover=69340
						74:leaf=37.871933,cover=29790
				18:[f1<585.788452] yes=37,no=38,missing=38,gain=509550592,cover=68043
					37:[f1<473.820984] yes=75,no=76,missing=76,gain=77957120,cover=50109
						75:leaf=40.6074638,cover=31038
						76:leaf=48.7409286,cover=19071
					38:[f1<816.838989] yes=77,no=78,missing=78,gain=93054464,cover=17934
						77:leaf=59.4638634,cover=13910
						78:leaf=76.7661896,cover=4024
		4:[f1<1326.0625] yes=9,no=10,missing=9,gain=2.24975258e+10,cover=165555
			9:[f0<1006.99353] yes=19,no=20,missing=20,gain=5.02850355e+09,cover=126424
				19:[f1<716.423462] yes=39,no=40,missing=40,gain=1.54259456e+09,cover=85422
					39:[f1<532.619019] yes=79,no=80,missing=80,gain=206103552,cover=40109
						79:leaf=51.5837212,cover=18505
						80:leaf=65.9753571,cover=21604
					40:[f1<960.139038] yes=81,no=82,missing=81,gain=442734592,cover=45313
						81:leaf=79.7938385,cover=31732
						82:leaf=101.38723,cover=13581
				20:[f1<1070.98401] yes=41,no=42,missing=42,gain=1.1154432e+09,cover=41002
					41:[f3<797.68396] yes=83,no=84,missing=83,gain=194023424,cover=20077
						83:leaf=88.168129,cover=8756
						84:leaf=108.041138,cover=11321
					42:[f0<1532.84546] yes=85,no=86,missing=86,gain=536547328,cover=20925
						85:leaf=122.303543,cover=14998
						86:leaf=157.897934,cover=5927
			10:[f1<2092.6355] yes=21,no=22,missing=22,gain=3.52899072e+09,cover=39131
				21:[f1<1629.97998] yes=43,no=44,missing=44,gain=650174464,cover=29024
					43:[f0<1326.08899] yes=87,no=88,missing=88,gain=199221248,cover=15722
						87:leaf=131.929962,cover=8268
						88:leaf=154.587082,cover=7454
					44:[f0<1472.89746] yes=89,no=90,missing=90,gain=188837888,cover=13302
						89:leaf=159.18306,cover=5837
						90:leaf=183.380417,cover=7465
				22:[f1<2793.06787] yes=45,no=46,missing=46,gain=628740096,cover=10107
					45:[f0<1493.28442] yes=91,no=92,missing=92,gain=120565760,cover=7358
						91:leaf=188.631226,cover=2027
						92:leaf=217.795685,cover=5331
					46:[f0<1529.12048] yes=93,no=94,missing=94,gain=236886016,cover=2749
						93:leaf=210.227036,cover=610
						94:leaf=281.871124,cover=2139
	2:[f0<5415.99658] yes=5,no=6,missing=6,gain=2.45206614e+11,cover=83362
		5:[f1<3765.10547] yes=11,no=12,missing=11,gain=4.05551186e+10,cover=66448
			11:[f1<2537.21338] yes=23,no=24,missing=24,gain=1.01916672e+10,cover=49907
				23:[f0<2781.9165] yes=47,no=48,missing=48,gain=1.18126182e+09,cover=21762
					47:[f1<1733.22449] yes=95,no=96,missing=96,gain=847831040,cover=14026
						95:leaf=172.76181,cover=4812
						96:leaf=224.676392,cover=9214
					48:[f0<4400.40918] yes=97,no=98,missing=98,gain=357478400,cover=7736
						97:leaf=249.327072,cover=7136
						98:leaf=330.363556,cover=600
				24:[f0<3261.0376] yes=49,no=50,missing=50,gain=3.55676979e+09,cover=28145
					49:[f1<3014.10498] yes=99,no=100,missing=99,gain=891748352,cover=16814
						99:leaf=267.791168,cover=10322
						100:leaf=315.307465,cover=6492
					50:[f6<1509.5] yes=101,no=102,missing=102,gain=848166912,cover=11331
						101:leaf=325.440643,cover=4612
						102:leaf=381.546112,cover=6719
			12:[f1<5744.5] yes=25,no=26,missing=26,gain=7.69818624e+09,cover=16541
				25:[f1<4687.48193] yes=51,no=52,missing=52,gain=1.42421197e+09,cover=13082
					51:[f0<3515.11865] yes=103,no=104,missing=104,gain=549208064,cover=8604
						103:leaf=370.504974,cover=4133
						104:leaf=421.788666,cover=4471
					52:[f6<1509.5] yes=105,no=106,missing=106,gain=647299072,cover=4478
						105:leaf=387.770355,cover=859
						106:leaf=485.897675,cover=3619
				26:[f6<1527] yes=53,no=54,missing=54,gain=1.49722726e+09,cover=3459
					53:[f6<1363] yes=107,no=108,missing=108,gain=101071872,cover=357
						107:leaf=336.143036,cover=182
						108:leaf=450.087616,cover=175
					54:[f1<7384.65527] yes=109,no=110,missing=110,gain=900587520,cover=3102
						109:leaf=577.257019,cover=2240
						110:leaf=699.953186,cover=862
		6:[f6<3619.5] yes=13,no=14,missing=14,gain=5.39648983e+10,cover=16914
			13:[f1<6147.19531] yes=27,no=28,missing=27,gain=9.24473754e+09,cover=11610
				27:[f3<3693] yes=55,no=56,missing=56,gain=2.84698214e+09,cover=6906
					55:[f1<4369.5332] yes=111,no=112,missing=112,gain=495423488,cover=2229
						111:leaf=416.643219,cover=1265
						112:leaf=513.75885,cover=964
					56:[f0<6762.30664] yes=113,no=114,missing=114,gain=1.41133414e+09,cover=4677
						113:leaf=541.594604,cover=2357
						114:leaf=652.818176,cover=2320
				28:[f6<3055.5] yes=57,no=58,missing=58,gain=1.53858867e+09,cover=4704
					57:[f6<2523.5] yes=115,no=116,missing=116,gain=310509568,cover=2501
						115:leaf=632.26355,cover=974
						116:leaf=709.678162,cover=1527
					58:[f1<8550.5] yes=117,no=118,missing=118,gain=630145024,cover=2203
						117:leaf=754.148743,cover=1415
						118:leaf=871.144165,cover=788
			14:[f1<9451.58789] yes=29,no=30,missing=29,gain=1.23255194e+10,cover=5304
				29:[f0<9219] yes=59,no=60,missing=60,gain=2.89038336e+09,cover=3038
					59:[f1<7441] yes=119,no=120,missing=120,gain=1.09845709e+09,cover=2065
						119:leaf=724.745178,cover=895
						120:leaf=876.18811,cover=1170
					60:[f6<4167.5] yes=121,no=122,missing=122,gain=2.11646054e+09,cover=973
						121:leaf=894.670349,cover=570
						122:leaf=1201.05115,cover=403
				30:[f0<10196.5] yes=61,no=62,missing=62,gain=2.92644454e+09,cover=2266
					61:[f1<12472.8223] yes=123,no=124,missing=124,gain=517160960,cover=1365
						123:leaf=1047.00708,cover=944
						124:leaf=1194.73218,cover=421
					62:[f6<4431] yes=125,no=126,missing=126,gain=800522240,cover=901
						125:leaf=1188.78723,cover=318
						126:leaf=1406.45715,cover=583
booster[1]
0:[f1<2172.14453] yes=1,no=2,missing=1,gain=8.87770186e+11,cover=1921128
	1:[f2<663.744507] yes=3,no=4,missing=3,gain=1.60070369e+11,cover=1851485
		3:[f1<285.159485] yes=7,no=8,missing=7,gain=2.32368579e+10,cover=1704669
			7:[f4<95.5644989] yes=15,no=16,missing=15,gain=4.89859686e+09,cover=1559913
				15:[f2<50.1165009] yes=31,no=32,missing=32,gain=1.15196672e+09,cover=1350439
					31:[f1<28.4685001] yes=63,no=64,missing=63,gain=136911584,cover=1174455
						63:leaf=0.513741612,cover=1100253
						64:leaf=4.95168257,cover=74202
					32:[f1<112.954498] yes=65,no=66,missing=66,gain=516752384,cover=175984
						65:leaf=4.79338074,cover=100866
						66:leaf=15.7489424,cover=75118
				16:[f4<4393.44629] yes=33,no=34,missing=34,gain=1.53973555e+09,cover=209474
					33:[f1<200.731995] yes=67,no=68,missing=68,gain=669811712,cover=208687
						67:leaf=13.0478611,cover=121795
						68:leaf=24.5407009,cover=86892
					34:[f5<60.9899979] yes=69,no=70,missing=69,gain=1.07008986e+09,cover=787
						69:leaf=110.013542,cover=675
						70:leaf=442.857483,cover=112
			8:[f1<726.00647] yes=17,no=18,missing=18,gain=4.2234327e+09,cover=144756
				17:[f1<449.442993] yes=35,no=36,missing=36,gain=805302272,cover=121303
					35:[f1<356.415497] yes=71,no=72,missing=72,gain=92596736,cover=72867
						71:leaf=28.4915771,cover=38522
						72:leaf=35.6366844,cover=34345
					36:[f1<581.291504] yes=73,no=74,missing=74,gain=130200576,cover=48436
						73:leaf=44.5305519,cover=30575
						74:leaf=55.286171,cover=17861
				18:[f1<1259.07104] yes=37,no=38,missing=38,gain=889037824,cover=23453
					37:[f1<929.464966] yes=75,no=76,missing=76,gain=168303616,cover=19322
						75:leaf=68.5129852,cover=11961
						76:leaf=87.7632675,cover=7361
					38:[f6<5738] yes=77,no=78,missing=78,gain=284865536,cover=4131
						77:leaf=123.973572,cover=4080
						78:leaf=360.180664,cover=51
		4:[f4<4416.04199] yes=9,no=10,missing=9,gain=3.53680916e+10,cover=146816
			9:[f1<1261.99402] yes=19,no=20,missing=20,gain=2.36172247e+10,cover=144246
				19:[f1<778.942017] yes=39,no=40,missing=40,gain=3.15523072e+09,cover=81849
					39:[f1<455.984985] yes=79,no=80,missing=80,gain=601976832,cover=39614
						79:leaf=34.5356979,cover=11060
						80:leaf=62.020546,cover=28554
					40:[f1<1019.98303] yes=81,no=82,missing=82,gain=427806720,cover=42235
						81:leaf=84.5066147,cover=23189
						82:leaf=104.753235,cover=19046
				20:[f2<2325.64258] yes=41,no=42,missing=42,gain=9.0046464e+09,cover=62397
					41:[f1<1565.95996] yes=83,no=84,missing=83,gain=1.84936858e+09,cover=48439
						83:leaf=120.79248,cover=30331
						84:leaf=161.197723,cover=18108
					42:[f1<4344] yes=85,no=86,missing=86,gain=4.40305254e+09,cover=13958
						85:leaf=183.506393,cover=8721
						86:leaf=299.566498,cover=5237
			10:[f1<0.5] yes=21,no=22,missing=21,gain=7.54903859e+09,cover=2570
				21:[f6<3335] yes=43,no=44,missing=44,gain=6.12789043e+09,cover=2000
					43:[f2<4190.6582] yes=87,no=88,missing=88,gain=1.01662106e+09,cover=1368
						87:leaf=341.648285,cover=503
						88:leaf=522.099426,cover=865
					44:[f6<4101] yes=89,no=90,missing=90,gain=1.22125517e+09,cover=632
						89:leaf=699.751892,cover=340
						90:leaf=985.923767,cover=292
				22:[f1<724.5] yes=45,no=46,missing=46,gain=328997504,cover=570
					45:[f1<520.905518] yes=91,no=92,missing=92,gain=3645516.5,cover=110
						91:leaf=2.56505442,cover=104
						92:leaf=77.151268,cover=6
					46:[f1<1849] yes=93,no=94,missing=94,gain=24688256,cover=460
						93:leaf=175.020401,cover=235
						94:leaf=224.856613,cover=225
	2:[f1<5857.81104] yes=5,no=6,missing=6,gain=1.76584393e+11,cover=69643
		5:[f1<3550.88306] yes=11,no=12,missing=12,gain=2.56697958e+10,cover=56750
			11:[f1<2811.96533] yes=23,no=24,missing=24,gain=2.96517632e+09,cover=35274
				23:[f4<2106.90698] yes=47,no=48,missing=47,gain=580763648,cover=19535
					47:[f6<845.5] yes=95,no=96,missing=96,gain=153276416,cover=10333
						95:leaf=157.90744,cover=566
						96:leaf=212.146759,cover=9767
					48:[f2<3314] yes=97,no=98,missing=98,gain=321667072,cover=9202
						97:leaf=232.129379,cover=6638
						98:leaf=274.209137,cover=2564
				24:[f4<2737.97998] yes=49,no=50,missing=49,gain=591618048,cover=15739
					49:[f6<1091.5] yes=99,no=100,missing=100,gain=287932416,cover=8819
						99:leaf=217.987411,cover=1093
						100:leaf=273.473877,cover=7726
					50:[f2<3767.71851] yes=101,no=102,missing=102,gain=254889984,cover=6920
						101:leaf=291.518036,cover=4488
						102:leaf=332.44162,cover=2432
			12:[f1<4599.0332] yes=25,no=26,missing=26,gain=4.77629645e+09,cover=21476
				25:[f6<1381.5] yes=51,no=52,missing=52,gain=995426304,cover=13371
					51:[f6<958.5] yes=103,no=104,missing=104,gain=277256192,cover=2810
						103:leaf=198.015717,cover=249
						104:leaf=310.123505,cover=2561
					52:[f2<6222.28125] yes=105,no=106,missing=105,gain=738770944,cover=10561
						105:leaf=358.251648,cover=9406
						106:leaf=443.735077,cover=1155
				26:[f6<2417.5] yes=53,no=54,missing=54,gain=1.5479767e+09,cover=8105
					53:[f6<1391.5] yes=107,no=108,missing=108,gain=741015552,cover=4798
						107:leaf=326.403259,cover=814
						108:leaf=432.258698,cover=3984
					54:[f2<5541.5] yes=109,no=110,missing=109,gain=655138816,cover=3307
						109:leaf=460.753021,cover=1743
						110:leaf=551.585022,cover=1564
		6:[f1<9421.70703] yes=13,no=14,missing=14,gain=2.76009452e+10,cover=12893
			13:[f6<3178.5] yes=27,no=28,missing=28,gain=5.80580147e+09,cover=9565
				27:[f6<1629.5] yes=55,no=56,missing=56,gain=1.45409638e+09,cover=5256
					55:[f6<1299] yes=111,no=112,missing=112,gain=243092480,cover=478
						111:leaf=267.029633,cover=128
						112:leaf=432.466644,cover=350
					56:[f1<6860.16406] yes=113,no=114,missing=114,gain=664813568,cover=4778
						113:leaf=537.101807,cover=2512
						114:leaf=613.613037,cover=2266
				28:[f1<7836.4209] yes=57,no=58,missing=58,gain=1.1948032e+09,cover=4309
					57:[f2<8527.5] yes=115,no=116,missing=115,gain=433971200,cover=2626
						115:leaf=641.603455,cover=1804
						116:leaf=733.651489,cover=822
					58:[f6<4328] yes=117,no=118,missing=118,gain=566304768,cover=1683
						117:leaf=745.190491,cover=1263
						118:leaf=886.120544,cover=420
			14:[f6<3608] yes=29,no=30,missing=30,gain=7.64736307e+09,cover=3328
				29:[f6<2133] yes=59,no=60,missing=60,gain=1.24182118e+09,cover=955
					59:[f6<1369.41943] yes=119,no=120,missing=120,gain=106677504,cover=106
						119:leaf=266.207367,cover=45
						120:leaf=481.145569,cover=61
					60:[f5<49.3099976] yes=121,no=122,missing=121,gain=292974592,cover=849
						121:leaf=793.759705,cover=677
						122:leaf=634.179077,cover=172
				30:[f6<4687.5] yes=61,no=62,missing=62,gain=2.04442829e+09,cover=2373
					61:[f1<12596.5] yes=123,no=124,missing=124,gain=583892992,cover=1459
						123:leaf=935.155945,cover=990
						124:leaf=1081.24744,cover=469
					62:[f1<13706] yes=125,no=126,missing=126,gain=333758464,cover=914
						125:leaf=1131.63916,cover=651
						126:leaf=1290.21387,cover=263
booster[2]
0:[f0<2168.05859] yes=1,no=2,missing=1,gain=8.09034056e+11,cover=1920392
	1:[f0<610.755005] yes=3,no=4,missing=3,gain=1.11342428e+11,cover=1842305
		3:[f0<184.405487] yes=7,no=8,missing=7,gain=1.43452058e+10,cover=1687145
			7:[f0<63.0014992] yes=15,no=16,missing=15,gain=1.56233754e+09,cover=1448286
				15:[f3<2389.75586] yes=31,no=32,missing=31,gain=440561696,cover=1256743
					31:[f3<20.0545006] yes=63,no=64,missing=63,gain=132557344,cover=1255299
						63:leaf=0.25188753,cover=1102877
						64:leaf=3.39809155,cover=152422
					32:[f0<0.5] yes=65,no=66,missing=66,gain=865261696,cover=1444
						65:leaf=170.762436,cover=450
						66:leaf=3.75478148,cover=994
				16:[f0<115.878494] yes=33,no=34,missing=34,gain=114048896,cover=191543
					33:[f2<102.947495] yes=67,no=68,missing=67,gain=15067392,cover=92324
						67:leaf=6.89390135,cover=58619
						68:leaf=9.54786015,cover=33705
					34:[f4<183.986511] yes=69,no=70,missing=69,gain=25531648,cover=99219
						69:leaf=11.7993574,cover=73588
						70:leaf=15.4652634,cover=25631
			8:[f0<376.189514] yes=17,no=18,missing=18,gain=1.79196723e+09,cover=238859
				17:[f0<273.001495] yes=35,no=36,missing=36,gain=226368000,cover=153147
					35:[f4<249.999496] yes=71,no=72,missing=71,gain=42646528,cover=88804
						71:leaf=17.2849541,cover=63295
						72:leaf=22.1299953,cover=25509
					36:[f4<406.675507] yes=73,no=74,missing=73,gain=81684480,cover=64343
						73:leaf=24.7368851,cover=52081
						74:leaf=33.8124237,cover=12262
				18:[f4<419.140015] yes=37,no=38,missing=38,gain=254200832,cover=85712
					37:[f3<287.481598] yes=75,no=76,missing=76,gain=65240064,cover=37929
						75:leaf=28.6437626,cover=14595
						76:leaf=37.1751099,cover=23334
					38:[f5<221.240005] yes=77,no=78,missing=78,gain=98777088,cover=47783
						77:leaf=41.884407,cover=33475
						78:leaf=51.8211861,cover=14308
		4:[f0<1306.02502] yes=9,no=10,missing=10,gain=1.45782374e+10,cover=155160
			9:[f0<903.530029] yes=19,no=20,missing=20,gain=1.99259341e+09,cover=106320
				19:[f4<812.533508] yes=39,no=40,missing=39,gain=324194304,cover=59917
					39:[f5<28.2150002] yes=79,no=80,missing=79,gain=141618176,cover=43434
						79:leaf=64.7893829,cover=14909
						80:leaf=52.7496033,cover=28525
					40:[f5<27.75] yes=81,no=82,missing=81,gain=80066560,cover=16483
						81:leaf=84.9616623,cover=4392
						82:leaf=69.1456833,cover=12091
				20:[f4<1041.22607] yes=41,no=42,missing=41,gain=404860928,cover=46403
					41:[f5<29.1849995] yes=83,no=84,missing=83,gain=238016512,cover=30074
						83:leaf=94.4505997,cover=10327
						84:leaf=75.6893921,cover=19747
					42:[f5<28.2150002] yes=85,no=86,missing=85,gain=168456192,cover=16329
						85:leaf=117.552223,cover=4775
						86:leaf=95.156662,cover=11554
			10:[f0<1692.45044] yes=21,no=22,missing=22,gain=1.8204672e+09,cover=48840
				21:[f5<29.4950008] yes=43,no=44,missing=43,gain=442208256,cover=26081
					43:[f3<1330.02808] yes=87,no=88,missing=87,gain=232992768,cover=9375
						87:leaf=127.773369,cover=6307
						88:leaf=161.505798,cover=3068
					44:[f2<1530.43506] yes=89,no=90,missing=89,gain=328531968,cover=16706
						89:leaf=98.4442673,cover=8875
						90:leaf=126.597572,cover=7831
				22:[f5<27.75] yes=45,no=46,missing=45,gain=836157440,cover=22759
					45:[f4<2157.79297] yes=91,no=92,missing=91,gain=450478080,cover=7344
						91:leaf=173.244522,cover=5446
						92:leaf=230.02739,cover=1898
					46:[f3<1833.5] yes=93,no=94,missing=94,gain=557512704,cover=15415
						93:leaf=125.554581,cover=6843
						94:leaf=163.902756,cover=8572
	2:[f0<5327.1582] yes=5,no=6,missing=6,gain=1.53983517e+11,cover=78087
		5:[f0<3645.1626] yes=11,no=12,missing=12,gain=1.73126779e+10,cover=60631
			11:[f5<221.240005] yes=23,no=24,missing=24,gain=3.57978931e+09,cover=41518
				23:[f2<3007.30957] yes=47,no=48,missing=47,gain=2.08952525e+09,cover=28451
					47:[f3<1933.90308] yes=95,no=96,missing=96,gain=599367680,cover=15967
						95:leaf=159.873932,cover=5614
						96:leaf=200.566025,cover=10353
					48:[f3<3083.10303] yes=97,no=98,missing=98,gain=766099456,cover=12484
						97:leaf=214.204666,cover=5795
						98:leaf=264.060608,cover=6689
				24:[f0<2836.07544] yes=49,no=50,missing=50,gain=1.33053645e+09,cover=13067
					49:[f4<2573.27246] yes=99,no=100,missing=99,gain=397115392,cover=7023
						99:leaf=227.248291,cover=4754
						100:leaf=278.465759,cover=2269
					50:[f4<4117.5] yes=101,no=102,missing=101,gain=369610752,cover=6044
						101:leaf=298.192017,cover=5247
						102:leaf=372.171387,cover=797
			12:[f3<2990.12402] yes=25,no=26,missing=26,gain=2.82668237e+09,cover=19113
				25:[f5<219.240005] yes=51,no=52,missing=52,gain=1.26212915e+09,cover=6825
					51:[f3<183.520508] yes=103,no=104,missing=104,gain=412798976,cover=4318
						103:leaf=348.974701,cover=476
						104:leaf=249.535233,cover=3842
					52:[f0<4286.12695] yes=105,no=106,missing=106,gain=201555968,cover=2507
						105:leaf=326.342194,cover=1517
						106:leaf=386.058044,cover=990
				26:[f5<27.75] yes=53,no=54,missing=53,gain=1.64988518e+09,cover=12288
					53:[f4<7000.30176] yes=107,no=108,missing=107,gain=820854784,cover=3985
						107:leaf=413.711426,cover=3682
						108:leaf=586.568787,cover=303
					54:[f2<4473.37012] yes=109,no=110,missing=109,gain=1.10981939e+09,cover=8303
						109:leaf=309.519745,cover=3923
						110:leaf=383.141663,cover=4380
		6:[f0<8367.64062] yes=13,no=14,missing=14,gain=2.17685688e+10,cover=17456
			13:[f5<28.2150002] yes=27,no=28,missing=27,gain=6.77573427e+09,cover=12010
				27:[f0<6688.74219] yes=55,no=56,missing=56,gain=2.59502899e+09,cover=3930
					55:[f4<5636] yes=111,no=112,missing=112,gain=815144960,cover=2281
						111:leaf=521.142822,cover=1478
						112:leaf=648.679443,cover=803
					56:[f4<6263] yes=113,no=114,missing=113,gain=738082816,cover=1649
						113:leaf=670.712097,cover=928
						114:leaf=810.30603,cover=721
				28:[f2<6208.39453] yes=57,no=58,missing=57,gain=4.15778406e+09,cover=8080
					57:[f3<4184.62061] yes=115,no=116,missing=115,gain=748621824,cover=3873
						115:leaf=358.218262,cover=2029
						116:leaf=447.164307,cover=1844
					58:[f3<6671] yes=117,no=118,missing=117,gain=1.44560128e+09,cover=4207
						117:leaf=473.111908,cover=1714
						118:leaf=593.599182,cover=2493
			14:[f5<219.240005] yes=29,no=30,missing=30,gain=1.50166897e+10,cover=5446
				29:[f3<5397.5] yes=59,no=60,missing=59,gain=1.54561741e+09,cover=3359
					59:[f0<12695.5] yes=119,no=120,missing=120,gain=379029504,cover=1148
						119:leaf=513.109802,cover=928
						120:leaf=664.366516,cover=220
					60:[f0<16444.5] yes=121,no=122,missing=122,gain=1.14804326e+09,cover=2211
						121:leaf=671.355225,cover=2114
						122:leaf=1028.59558,cover=97
				30:[f0<11227.5] yes=61,no=62,missing=62,gain=1.66853018e+09,cover=2087
					61:[f0<9222.5] yes=123,no=124,missing=124,gain=211566592,cover=1351
						123:leaf=853.25177,cover=530
						124:leaf=948.827759,cover=821
					62:[f3<6127.5] yes=125,no=126,missing=125,gain=372383744,cover=736
						125:leaf=953.827637,cover=170
						126:leaf=1147.77332,cover=566
booster[3]
0:[f0<1971.54395] yes=1,no=2,missing=1,gain=6.57674666e+11,cover=1919276
	1:[f0<531.30603] yes=3,no=4,missing=3,gain=7.76457339e+10,cover=1832580
		3:[f0<140.106506] yes=7,no=8,missing=7,gain=9.13561498e+09,cover=1662781
			7:[f1<7505.15234] yes=15,no=16,missing=15,gain=910352384,cover=1386523
				15:[f1<58.050499] yes=31,no=32,missing=31,gain=748666176,cover=1386456
					31:[f0<15.5625] yes=63,no=64,missing=63,gain=115608784,cover=1252971
						63:leaf=0.139433533,cover=1060891
						64:leaf=2.8056078,cover=192080
					32:[f2<2249.06689] yes=65,no=66,missing=65,gain=361801920,cover=133485
						65:leaf=8.11061001,cover=132998
						66:leaf=94.3737106,cover=487
				16:[f0<0.5] yes=33,no=34,missing=34,gain=1.27800128e+09,cover=67
					33:[f5<73.9300003] yes=67,no=68,missing=68,gain=119861504,cover=34
						67:leaf=485.846649,cover=13
						68:leaf=944.874207,cover=21
					34:[f0<99.288002] yes=69,no=70,missing=70,gain=425018,cover=33
						69:leaf=-78.99617,cover=32
						70:leaf=-6.12074757,cover=1
			8:[f1<339.359985] yes=17,no=18,missing=17,gain=1.53995571e+09,cover=276258
				17:[f1<216.918488] yes=35,no=36,missing=36,gain=292010496,cover=199958
					35:[f1<132.953003] yes=71,no=72,missing=72,gain=43751168,cover=95410
						71:leaf=9.44407749,cover=29748
						72:leaf=14.0676594,cover=65662
					36:[f0<316.969482] yes=73,no=74,missing=74,gain=131087872,cover=104548
						73:leaf=17.9406548,cover=72841
						74:leaf=25.64501,cover=31707
				18:[f1<546.484985] yes=37,no=38,missing=38,gain=308624896,cover=76300
					37:[f1<416.057983] yes=75,no=76,missing=76,gain=45371392,cover=56337
						75:leaf=26.7366619,cover=28561
						76:leaf=32.4183273,cover=27776
					38:[f1<736.092041] yes=77,no=78,missing=78,gain=62354432,cover=19963
						77:leaf=40.5211372,cover=14381
						78:leaf=52.9920845,cover=5582
		4:[f1<1305.91943] yes=9,no=10,missing=9,gain=1.14671698e+10,cover=169799
			9:[f0<977.79187] yes=19,no=20,missing=20,gain=2.6933248e+09,cover=131666
				19:[f1<683.854004] yes=39,no=40,missing=40,gain=838928384,cover=89014
					39:[f1<503.916504] yes=79,no=80,missing=80,gain=96241664,cover=40932
						79:leaf=35.7838402,cover=18185
						80:leaf=45.5509567,cover=22747
					40:[f1<906.95752] yes=81,no=82,missing=81,gain=259305472,cover=48082
						81:leaf=55.5618172,cover=32322
						82:leaf=71.2173004,cover=15760
				20:[f1<986.009033] yes=41,no=42,missing=42,gain=568250368,cover=42652
					41:[f1<22.5] yes=83,no=84,missing=84,gain=99425792,cover=17290
						83:leaf=108.710899,cover=590
						84:leaf=66.8774338,cover=16700
					42:[f0<1410.95557] yes=85,no=86,missing=86,gain=294778880,cover=25362
						85:leaf=84.1757126,cover=16877
						86:leaf=107.05619,cover=8485
			10:[f1<1907.08301] yes=21,no=22,missing=22,gain=1.70708992e+09,cover=38133
				21:[f0<1479.08643] yes=43,no=44,missing=44,gain=197996544,cover=25397
					43:[f1<1499.00659] yes=87,no=88,missing=88,gain=82437120,cover=16135
						87:leaf=94.9055099,cover=7954
						88:leaf=109.291985,cover=8181
					44:[f1<1532.83203] yes=89,no=90,missing=90,gain=44437504,cover=9262
						89:leaf=111.552406,cover=3496
						90:leaf=126.071533,cover=5766
				22:[f1<2585.5] yes=45,no=46,missing=46,gain=379934720,cover=12736
					45:[f6<729.5] yes=91,no=92,missing=92,gain=62472192,cover=9363
						91:leaf=105.349571,cover=425
						92:leaf=145.185745,cover=8938
					46:[f6<964.5] yes=93,no=94,missing=94,gain=175121408,cover=3373
						93:leaf=117.359886,cover=372
						94:leaf=190.700241,cover=3001
	2:[f0<5334.4043] yes=5,no=6,missing=6,gain=1.36864203e+11,cover=86696
		5:[f1<3756.08984] yes=11,no=12,missing=11,gain=2.25121731e+10,cover=69177
			11:[f1<2494.89648] yes=23,no=24,missing=24,gain=6.12447027e+09,cover=52828
				23:[f0<2593.7915] yes=47,no=48,missing=48,gain=782401536,cover=22917
					47:[f1<1609.00244] yes=95,no=96,missing=96,gain=396677120,cover=13506
						95:leaf=118.113907,cover=4193
						96:leaf=155.246948,cover=9313
					48:[f1<47] yes=97,no=98,missing=98,gain=416989184,cover=9411
						97:leaf=291.153168,cover=335
						98:leaf=177.261703,cover=9076
				24:[f0<3133.53247] yes=49,no=50,missing=50,gain=2.19009843e+09,cover=29911
					49:[f5<27.75] yes=99,no=100,missing=99,gain=604274688,cover=16887
						99:leaf=228.351715,cover=6413
						100:leaf=189.243454,cover=10474
					50:[f6<1391.5] yes=101,no=102,missing=102,gain=598016000,cover=13024
						101:leaf=227.221786,cover=4150
						102:leaf=273.461975,cover=8874
			12:[f1<5270.39844] yes=25,no=26,missing=26,gain=4.18367078e+09,cover=16349
				25:[f6<1392.5] yes=51,no=52,missing=52,gain=621174784,cover=11578
					51:[f6<1072.5] yes=103,no=104,missing=104,gain=166297600,cover=2291
						103:leaf=192.231796,cover=390
						104:leaf=265.201019,cover=1901
					52:[f0<4020.5] yes=105,no=106,missing=106,gain=398393344,cover=9287
						105:leaf=295.493713,cover=5898
						106:leaf=339.032623,cover=3389
				26:[f6<2822] yes=53,no=54,missing=54,gain=1.05825894e+09,cover=4771
					53:[f6<1454.5] yes=107,no=108,missing=108,gain=523821056,cover=3079
						107:leaf=277.507416,cover=470
						108:leaf=393.622345,cover=2609
					54:[f1<6612.5] yes=109,no=110,missing=110,gain=461176832,cover=1692
						109:leaf=425.434235,cover=911
						110:leaf=532.62677,cover=781
		6:[f6<3882.5] yes=13,no=14,missing=14,gain=3.2174932e+10,cover=17519
			13:[f1<5906.64404] yes=27,no=28,missing=28,gain=7.01382656e+09,cover=13498
				27:[f6<1663.5] yes=55,no=56,missing=56,gain=1.15191808e+09,cover=5732
					55:[f6<1155.5] yes=111,no=112,missing=112,gain=106601472,cover=1306
						111:leaf=233.135788,cover=208
						112:leaf=314.302216,cover=1098
					56:[f0<7634.98389] yes=113,no=114,missing=114,gain=914604032,cover=4426
						113:leaf=380.956238,cover=3222
						114:leaf=484.002441,cover=1204
				28:[f6<3055.5] yes=57,no=58,missing=58,gain=2.70712832e+09,cover=7766
					57:[f6<1834.97607] yes=115,no=116,missing=116,gain=681132032,cover=3841
						115:leaf=349.527496,cover=426
						116:leaf=485.648285,cover=3415
					58:[f5<28.2150002] yes=117,no=118,missing=117,gain=1.34186598e+09,cover=3925
						117:leaf=671.916443,cover=1329
						118:leaf=546.812805,cover=2596
			14:[f1<9342.70215] yes=29,no=30,missing=30,gain=4.81288192e+09,cover=4021
				29:[f0<8553] yes=59,no=60,missing=60,gain=808050688,cover=1597
					59:[f1<5181.5] yes=119,no=120,missing=120,gain=258572288,cover=1062
						119:leaf=471.526611,cover=147
						120:leaf=623.663086,cover=915
					60:[f6<4465.5] yes=121,no=122,missing=122,gain=419256320,cover=535
						121:leaf=678.31842,cover=318
						122:leaf=870.148438,cover=217
				30:[f0<10613] yes=61,no=62,missing=62,gain=2.32190771e+09,cover=2424
					61:[f1<10916.5] yes=123,no=124,missing=123,gain=494854144,cover=1624
						123:leaf=749.992188,cover=800
						124:leaf=867.422546,cover=824
					62:[f5<40.0849991] yes=125,no=126,missing=125,gain=502743040,cover=800
						125:leaf=1051.77673,cover=708
						126:leaf=780.066528,cover=92
booster[4]
0:[f0<2231.97217] yes=1,no=2,missing=1,gain=5.28597877e+11,cover=1921054
	1:[f0<649.395996] yes=3,no=4,missing=3,gain=7.66609981e+10,cover=1845673
		3:[f0<203.205505] yes=7,no=8,missing=7,gain=1.04935557e+10,cover=1698062
			7:[f0<71.8094482] yes=15,no=16,missing=15,gain=1.26878528e+09,cover=1470965
				15:[f3<1039.88306] yes=31,no=32,missing=31,gain=324253472,cover=1273932
					31:[f0<19.0009995] yes=63,no=64,missing=63,gain=96420016,cover=1270850
						63:leaf=0.185302749,cover=1100387
						64:leaf=2.74119115,cover=170463
					32:[f4<8042.24219] yes=65,no=66,missing=65,gain=638151040,cover=3082
						65:leaf=25.8051338,cover=3008
						66:leaf=321.139648,cover=74
				16:[f0<124.223] yes=33,no=34,missing=34,gain=73617408,cover=197033
					33:[f4<136.545013] yes=67,no=68,missing=67,gain=11757376,cover=89494
						67:leaf=6.4709053,cover=68253
						68:leaf=9.16546726,cover=21241
					34:[f4<202.964508] yes=69,no=70,missing=69,gain=23944448,cover=107539
						69:leaf=10.1489487,cover=81488
						70:leaf=13.6325607,cover=26051
			8:[f0<405.237] yes=17,no=18,missing=18,gain=1.21875968e+09,cover=227097
				17:[f4<342.899506] yes=35,no=36,missing=35,gain=152494592,cover=144861
					35:[f0<289.531982] yes=71,no=72,missing=72,gain=66502656,cover=111947
						71:leaf=15.5961027,cover=67408
						72:leaf=20.5768776,cover=44539
					36:[f2<355.852997] yes=73,no=74,missing=74,gain=40401536,cover=32914
						73:leaf=22.1446133,cover=18078
						74:leaf=29.1913204,cover=14836
				18:[f3<333.867004] yes=37,no=38,missing=38,gain=175120384,cover=82236
					37:[f3<3.5] yes=75,no=76,missing=76,gain=20294016,cover=19054
						75:leaf=34.8843498,cover=2351
						76:leaf=24.9462738,cover=16703
					38:[f5<221.240005] yes=77,no=78,missing=78,gain=116261888,cover=63182
						77:leaf=34.3831902,cover=44972
						78:leaf=43.8594437,cover=18210
		4:[f0<1357.20996] yes=9,no=10,missing=10,gain=9.55800781e+09,cover=147611
			9:[f0<943.979004] yes=19,no=20,missing=20,gain=1.2088361e+09,cover=100258
				19:[f4<878.552612] yes=39,no=40,missing=39,gain=248811520,cover=55688
					39:[f5<221.240005] yes=79,no=80,missing=80,gain=114323456,cover=41204
						79:leaf=44.9558296,cover=27388
						80:leaf=56.1245995,cover=13816
					40:[f5<27.75] yes=81,no=82,missing=81,gain=58498048,cover=14484
						81:leaf=74.5965118,cover=3820
						82:leaf=60.1258621,cover=10664
				20:[f3<776.505493] yes=41,no=42,missing=42,gain=346853376,cover=44570
					41:[f5<110.120003] yes=83,no=84,missing=84,gain=138564096,cover=12823
						83:leaf=52.3648872,cover=7688
						84:leaf=73.6064682,cover=5135
					42:[f5<29.1849995] yes=85,no=86,missing=85,gain=203257856,cover=31747
						85:leaf=92.6235275,cover=9517
						86:leaf=75.1321259,cover=22230
			10:[f3<1463.94507] yes=21,no=22,missing=22,gain=1.21652838e+09,cover=47353
				21:[f5<221.240005] yes=43,no=44,missing=44,gain=423546880,cover=21076
					43:[f3<167.578491] yes=87,no=88,missing=88,gain=121674752,cover=12188
						87:leaf=116.803825,cover=1235
						88:leaf=83.6026306,cover=10953
					44:[f0<1796.97974] yes=89,no=90,missing=90,gain=123200512,cover=8888
						89:leaf=108.622696,cover=6547
						90:leaf=135.492096,cover=2341
				22:[f5<28.2150002] yes=45,no=46,missing=45,gain=879263744,cover=26277
					45:[f4<2302.5] yes=91,no=92,missing=91,gain=234762240,cover=7109
						91:leaf=149.65416,cover=5029
						92:leaf=189.810654,cover=2080
					46:[f2<1918.5] yes=93,no=94,missing=93,gain=374323200,cover=19168
						93:leaf=104.886955,cover=8723
						94:leaf=133.001892,cover=10445
	2:[f0<5651.75977] yes=5,no=6,missing=6,gain=9.84087921e+10,cover=75381
		5:[f0<3885.43896] yes=11,no=12,missing=12,gain=1.33265818e+10,cover=59979
			11:[f0<2893.96924] yes=23,no=24,missing=24,gain=2.75803341e+09,cover=43120
				23:[f5<28.2150002] yes=47,no=48,missing=47,gain=1.09359514e+09,cover=21923
					47:[f4<2869.5] yes=95,no=96,missing=95,gain=258310144,cover=6859
						95:leaf=190.611191,cover=5158
						96:leaf=235.890381,cover=1701
					48:[f2<2319.5] yes=97,no=98,missing=97,gain=423747584,cover=15064
						97:leaf=131.142456,cover=5402
						98:leaf=166.208282,cover=9662
				24:[f5<221.240005] yes=49,no=50,missing=50,gain=1.48860109e+09,cover=21197
					49:[f2<3347.87158] yes=99,no=100,missing=99,gain=935972864,cover=14239
						99:leaf=175.108246,cover=7124
						100:leaf=226.491989,cover=7115
					50:[f4<5178.84912] yes=101,no=102,missing=101,gain=364785664,cover=6958
						101:leaf=251.253098,cover=6515
						102:leaf=345.77832,cover=443
			12:[f4<4125.76221] yes=25,no=26,missing=25,gain=2.25809203e+09,cover=16859
				25:[f5<219.240005] yes=51,no=52,missing=52,gain=1.25792256e+09,cover=11352
					51:[f2<4522.5] yes=103,no=104,missing=103,gain=928595968,cover=7468
						103:leaf=222.106522,cover=4757
						104:leaf=295.669525,cover=2711
					52:[f0<4787.5] yes=105,no=106,missing=106,gain=340221952,cover=3884
						105:leaf=298.548798,cover=2643
						106:leaf=362.943451,cover=1241
				26:[f5<27.75] yes=53,no=54,missing=53,gain=701919232,cover=5507
					53:[f4<7092.71045] yes=107,no=108,missing=108,gain=373907456,cover=1789
						107:leaf=380.028107,cover=1447
						108:leaf=498.638672,cover=342
					54:[f2<5421.5] yes=109,no=110,missing=110,gain=371560448,cover=3718
						109:leaf=298.138428,cover=2118
						110:leaf=362.875,cover=1600
		6:[f5<221.240005] yes=13,no=14,missing=14,gain=1.35303004e+10,cover=15402
			13:[f2<6844.52539] yes=27,no=28,missing=27,gain=4.78117888e+09,cover=10112
				27:[f0<8974.64648] yes=55,no=56,missing=56,gain=794701824,cover=4497
					55:[f3<3709] yes=111,no=112,missing=112,gain=540192768,cover=3920
						111:leaf=295.1185,cover=1411
						112:leaf=373.283569,cover=2509
					56:[f4<2686.65039] yes=113,no=114,missing=113,gain=248693760,cover=577
						113:leaf=369.203766,cover=179
						114:leaf=516.991272,cover=398
				28:[f0<14724.5] yes=57,no=58,missing=58,gain=1.583104e+09,cover=5615
					57:[f3<5924.5] yes=115,no=116,missing=115,gain=1.26244454e+09,cover=5349
						115:leaf=417.722565,cover=1748
						116:leaf=522.246948,cover=3601
					58:[f0<14727] yes=117,no=118,missing=118,gain=618470400,cover=266
						117:leaf=2564.37866,cover=1
						118:leaf=723.138123,cover=265
			14:[f0<8436.9668] yes=29,no=30,missing=30,gain=8.80915251e+09,cover=5290
				29:[f0<7046.38184] yes=59,no=60,missing=60,gain=1.29969357e+09,cover=3293
					59:[f4<6964.5] yes=119,no=120,missing=120,gain=436002816,cover=1997
						119:leaf=455.404938,cover=1480
						120:leaf=564.817932,cover=517
					60:[f3<5149.1543] yes=121,no=122,missing=121,gain=281378816,cover=1296
						121:leaf=548.22876,cover=474
						122:leaf=651.152222,cover=822
				30:[f0<11065.0342] yes=61,no=62,missing=62,gain=1.00384768e+09,cover=1997
					61:[f3<6515] yes=123,no=124,missing=123,gain=110469120,cover=1235
						123:leaf=706.817139,cover=614
						124:leaf=780.043152,cover=621
					62:[f3<4013.5] yes=125,no=126,missing=125,gain=412303360,cover=762
						125:leaf=628.072998,cover=63
						126:leaf=917.808777,cover=699
booster[5]
0:[f0<2137.98193] yes=1,no=2,missing=1,gain=4.31297528e+11,cover=1920167
	1:[f0<596.954468] yes=3,no=4,missing=3,gain=5.80716052e+10,cover=1840984
		3:[f0<179.915009] yes=7,no=8,missing=7,gain=7.30603827e+09,cover=1683286
			7:[f1<86.138504] yes=15,no=16,missing=15,gain=910551168,cover=1442323
				15:[f0<33.4365005] yes=31,no=32,missing=31,gain=148746432,cover=1307432
					31:[f4<8985.17578] yes=63,no=64,missing=63,gain=36180536,cover=1169775
						63:leaf=0.222198442,cover=1169687
						64:leaf=63.9837761,cover=88
					32:[f0<92.0034943] yes=65,no=66,missing=66,gain=21945088,cover=137657
						65:leaf=2.98452759,cover=104042
						66:leaf=5.92356491,cover=33615
				16:[f4<2236.17334] yes=33,no=34,missing=33,gain=1.31020634e+09,cover=134891
					33:[f4<840.47699] yes=67,no=68,missing=67,gain=110348544,cover=134577
						67:leaf=8.55091667,cover=133960
						68:leaf=50.9058189,cover=617
					34:[f0<0.5] yes=69,no=70,missing=70,gain=715273856,cover=314
						69:leaf=307.498352,cover=225
						70:leaf=-26.9061127,cover=89
			8:[f1<405.999023] yes=17,no=18,missing=17,gain=1.16225024e+09,cover=240963
				17:[f1<267.889526] yes=35,no=36,missing=36,gain=251841536,cover=176583
					35:[f1<155.588501] yes=71,no=72,missing=72,gain=35082240,cover=88701
						71:leaf=8.90365982,cover=23077
						72:leaf=13.4375658,cover=65624
					36:[f0<422.327026] yes=73,no=74,missing=74,gain=78034176,cover=87882
						73:leaf=18.2787895,cover=69507
						74:leaf=25.6081123,cover=18375
				18:[f1<650.19397] yes=37,no=38,missing=38,gain=240032768,cover=64380
					37:[f1<516.353516] yes=75,no=76,missing=76,gain=36261376,cover=49209
						75:leaf=26.1598186,cover=30145
						76:leaf=31.7380829,cover=19064
					38:[f4<602.874512] yes=77,no=78,missing=78,gain=40420864,cover=15171
						77:leaf=37.6579399,cover=7767
						78:leaf=48.0069542,cover=7404
		4:[f1<1419.00903] yes=9,no=10,missing=9,gain=8.85478195e+09,cover=157698
			9:[f1<861.849487] yes=19,no=20,missing=20,gain=1.88336538e+09,cover=121242
				19:[f0<1242.25903] yes=39,no=40,missing=40,gain=183132160,cover=55656
					39:[f1<636.867493] yes=79,no=80,missing=80,gain=198350336,cover=51627
						79:leaf=33.2822838,cover=26059
						80:leaf=45.6842155,cover=25568
					40:[f1<41.949501] yes=81,no=82,missing=82,gain=124804096,cover=4029
						81:leaf=114.647926,cover=399
						82:leaf=55.7044067,cover=3630
				20:[f0<1194.87048] yes=41,no=42,missing=42,gain=737558528,cover=65586
					41:[f1<1098.0105] yes=83,no=84,missing=83,gain=188822528,cover=41879
						83:leaf=53.6149292,cover=29140
						84:leaf=68.2227402,cover=12739
					42:[f1<1359.32202] yes=85,no=86,missing=86,gain=276712448,cover=23707
						85:leaf=72.3190002,cover=15573
						86:leaf=95.1011581,cover=8134
			10:[f1<2315.06592] yes=21,no=22,missing=22,gain=1.44032563e+09,cover=36456
				21:[f1<1770.02197] yes=43,no=44,missing=44,gain=323872768,cover=28450
					43:[f0<1567.97607] yes=87,no=88,missing=88,gain=50622464,cover=15760
						87:leaf=86.5231247,cover=10411
						88:leaf=98.5881577,cover=5349
					44:[f0<1626.5] yes=89,no=90,missing=90,gain=45795328,cover=12690
						89:leaf=105.768715,cover=6085
						90:leaf=117.956238,cover=6605
				22:[f1<2902.021] yes=45,no=46,missing=46,gain=166629376,cover=8006
					45:[f5<27.75] yes=91,no=92,missing=91,gain=45496320,cover=5181
						91:leaf=147.347702,cover=2509
						92:leaf=128.214813,cover=2672
					46:[f0<1516] yes=93,no=94,missing=94,gain=137849344,cover=2825
						93:leaf=118.752808,cover=483
						94:leaf=177.970322,cover=2342
	2:[f0<5888.15088] yes=5,no=6,missing=6,gain=8.41906586e+10,cover=79183
		5:[f1<4004.19434] yes=11,no=12,missing=11,gain=1.80208271e+10,cover=64991
			11:[f1<2737.67651] yes=23,no=24,missing=24,gain=4.40275763e+09,cover=49783
				23:[f1<2090.47949] yes=47,no=48,missing=48,gain=605794304,cover=23072
					47:[f1<47] yes=95,no=96,missing=96,gain=730708992,cover=10782
						95:leaf=236.17601,cover=526
						96:leaf=115.31588,cover=10256
					48:[f0<2679.97217] yes=97,no=98,missing=98,gain=132417536,cover=12290
						97:leaf=141.924042,cover=5402
						98:leaf=163.021637,cover=6888
				24:[f0<4134.52832] yes=49,no=50,missing=50,gain=1.45199923e+09,cover=26711
					49:[f0<2813.53247] yes=99,no=100,missing=100,gain=471572480,cover=21571
						99:leaf=168.685806,cover=8658
						100:leaf=198.959656,cover=12913
					50:[f1<2738.18164] yes=101,no=102,missing=101,gain=590391296,cover=5140
						101:leaf=299.182922,cover=1494
						102:leaf=224.182724,cover=3646
			12:[f1<5971.5] yes=25,no=26,missing=26,gain=3.64424397e+09,cover=15208
				25:[f1<4889.69922] yes=51,no=52,missing=52,gain=540704768,cover=11382
					51:[f0<3302.5] yes=103,no=104,missing=104,gain=128208896,cover=7122
						103:leaf=228.256332,cover=2099
						104:leaf=258.385223,cover=5023
					52:[f0<4219.19336] yes=105,no=106,missing=106,gain=187793408,cover=4260
						105:leaf=272.231354,cover=2024
						106:leaf=315.227112,cover=2236
				26:[f1<7832.56152] yes=53,no=54,missing=54,gain=573517824,cover=3826
					53:[f0<2981.89355] yes=107,no=108,missing=108,gain=148037632,cover=2881
						107:leaf=230.229614,cover=96
						108:leaf=361.194397,cover=2785
					54:[f0<3381.96436] yes=109,no=110,missing=110,gain=253200384,cover=945
						109:leaf=194.795715,cover=40
						110:leaf=458.720856,cover=905
		6:[f1<8986.83398] yes=13,no=14,missing=13,gain=1.56908257e+10,cover=14192
			13:[f1<6553.91113] yes=27,no=28,missing=28,gain=3.99476326e+09,cover=10770
				27:[f0<8194] yes=55,no=56,missing=56,gain=840298496,cover=5487
					55:[f1<4938.5] yes=111,no=112,missing=112,gain=447533056,cover=3962
						111:leaf=292.723114,cover=2104
						112:leaf=360.842651,cover=1858
					56:[f2<11158] yes=113,no=114,missing=113,gain=334747648,cover=1525
						113:leaf=392.284302,cover=1297
						114:leaf=526.713318,cover=228
				28:[f0<9148.5] yes=57,no=58,missing=58,gain=1.28486605e+09,cover=5283
					57:[f5<28.2150002] yes=115,no=116,missing=115,gain=792985600,cover=3682
						115:leaf=500.072113,cover=1349
						116:leaf=402.623871,cover=2333
					58:[f5<43.1849976] yes=117,no=118,missing=117,gain=956710912,cover=1601
						117:leaf=631.99884,cover=730
						118:leaf=474.486542,cover=871
			14:[f1<11332] yes=29,no=30,missing=30,gain=1.91565005e+09,cover=3422
				29:[f0<9176.5] yes=59,no=60,missing=60,gain=463224832,cover=1794
					59:[f2<9206] yes=119,no=120,missing=119,gain=154832896,cover=1212
						119:leaf=561.004333,cover=1050
						120:leaf=446.62027,cover=162
					60:[f5<40.4449997] yes=121,no=122,missing=121,gain=474736640,cover=582
						121:leaf=723.251465,cover=391
						122:leaf=522.764648,cover=191
				30:[f0<11845.5] yes=61,no=62,missing=62,gain=692256768,cover=1628
					61:[f5<36.3349991] yes=123,no=124,missing=123,gain=220520448,cover=1220
						123:leaf=717.644714,cover=976
						124:leaf=600.511841,cover=244
					62:[f5<196.339996] yes=125,no=126,missing=126,gain=587003904,cover=408
						125:leaf=571.641052,cover=70
						126:leaf=906.741821,cover=338
booster[6]
0:[f0<1971.54395] yes=1,no=2,missing=1,gain=3.50384325e+11,cover=1920366
	1:[f0<503.33252] yes=3,no=4,missing=3,gain=4.12311183e+10,cover=1833726
		3:[f0<130.767502] yes=7,no=8,missing=7,gain=4.41605427e+09,cover=1654476
			7:[f3<50.6080017] yes=15,no=16,missing=15,gain=344708256,cover=1372244
				15:[f0<11.0009995] yes=31,no=32,missing=31,gain=58401864,cover=1223008
					31:[f2<658.7995] yes=63,no=64,missing=63,gain=12167195,cover=1005004
						63:leaf=0.0205884445,cover=1002925
						64:leaf=-7.63561487,cover=2079
					32:[f0<52.0084991] yes=65,no=66,missing=66,gain=18430744,cover=218004
						65:leaf=1.38042736,cover=178903
						66:leaf=3.7770524,cover=39101
				16:[f2<2474.95801] yes=33,no=34,missing=34,gain=414208896,cover=149236
					33:[f2<551.083008] yes=67,no=68,missing=68,gain=52958624,cover=148503
						67:leaf=4.81136656,cover=146228
						68:leaf=20.1839333,cover=2275
					34:[f0<0.5] yes=69,no=70,missing=70,gain=821067648,cover=733
						69:leaf=201.660095,cover=316
						70:leaf=-11.8339739,cover=417
			8:[f0<300.424011] yes=17,no=18,missing=18,gain=663358976,cover=282232
				17:[f0<222.955505] yes=35,no=36,missing=36,gain=93689344,cover=184765
					35:[f3<182.990997] yes=71,no=72,missing=71,gain=21913920,cover=118926
						71:leaf=8.26677608,cover=69175
						72:leaf=11.0191469,cover=49751
					36:[f3<183.787506] yes=73,no=74,missing=74,gain=20473728,cover=65839
						73:leaf=11.4201946,cover=19699
						74:leaf=15.2730455,cover=46140
				18:[f3<306.015015] yes=37,no=38,missing=38,gain=115975168,cover=97467
					37:[f5<37.6299973] yes=75,no=76,missing=75,gain=19188544,cover=36793
						75:leaf=19.2599411,cover=17490
						76:leaf=14.6837282,cover=19303
					38:[f5<221.240005] yes=77,no=78,missing=78,gain=63322624,cover=60674
						77:leaf=22.0711384,cover=45028
						78:leaf=29.4590759,cover=15646
		4:[f0<1110.91455] yes=9,no=10,missing=10,gain=6.1956055e+09,cover=179250
			9:[f0<772.980469] yes=19,no=20,missing=20,gain=813764608,cover=119772
				19:[f3<430.815491] yes=39,no=40,missing=40,gain=143694336,cover=69780
					39:[f5<36.7849998] yes=79,no=80,missing=79,gain=26027264,cover=18371
						79:leaf=30.1099586,cover=8479
						80:leaf=22.5502129,cover=9892
					40:[f5<110.395004] yes=81,no=82,missing=82,gain=76467200,cover=51409
						81:leaf=33.915554,cover=36799
						82:leaf=42.4736404,cover=14610
				20:[f3<654.073975] yes=41,no=42,missing=42,gain=187287552,cover=49992
					41:[f5<110.120003] yes=83,no=84,missing=84,gain=79157760,cover=14877
						83:leaf=34.7936363,cover=8709
						84:leaf=49.6145973,cover=6168
					42:[f5<29.5450001] yes=85,no=86,missing=85,gain=108072960,cover=35115
						85:leaf=63.154705,cover=9975
						86:leaf=50.83675,cover=25140
			10:[f0<1564.95947] yes=21,no=22,missing=22,gain=948867072,cover=59478
				21:[f3<886.409485] yes=43,no=44,missing=44,gain=267022336,cover=37649
					43:[f5<221.240005] yes=87,no=88,missing=88,gain=96367360,cover=11059
						87:leaf=49.5276527,cover=6473
						88:leaf=68.5057297,cover=4586
					44:[f5<221.240005] yes=89,no=90,missing=90,gain=189370368,cover=26590
						89:leaf=70.1690445,cover=18202
						90:leaf=88.3562012,cover=8388
				22:[f3<1350.4751] yes=45,no=46,missing=46,gain=331380736,cover=21829
					45:[f5<110.120003] yes=91,no=92,missing=92,gain=127078400,cover=8282
						91:leaf=70.3554611,cover=4814
						92:leaf=95.5247192,cover=3468
					46:[f5<27.75] yes=93,no=94,missing=93,gain=303613952,cover=13547
						93:leaf=130.092743,cover=3857
						94:leaf=96.8607101,cover=9690
	2:[f0<4955.5] yes=5,no=6,missing=6,gain=7.31475804e+10,cover=86640
		5:[f0<3057.1543] yes=11,no=12,missing=12,gain=7.69376256e+09,cover=66420
			11:[f5<28.2150002] yes=23,no=24,missing=23,gain=1.24028518e+09,cover=37079
				23:[f6<1080.80371] yes=47,no=48,missing=48,gain=789831680,cover=11712
					47:[f6<668.5] yes=95,no=96,missing=96,gain=205062272,cover=1677
						95:leaf=19.0838928,cover=286
						96:leaf=112.127518,cover=1391
					48:[f3<2145.5] yes=97,no=98,missing=97,gain=399163392,cover=10035
						97:leaf=152.142914,cover=5449
						98:leaf=192.321121,cover=4586
				24:[f3<2170.5] yes=49,no=50,missing=50,gain=681164800,cover=25367
					49:[f2<2153.5] yes=99,no=100,missing=100,gain=140664832,cover=9825
						99:leaf=88.3277969,cover=5100
						100:leaf=112.358269,cover=4725
					50:[f2<2544.24268] yes=101,no=102,missing=101,gain=220262400,cover=15542
						101:leaf=119.214134,cover=6368
						102:leaf=143.517227,cover=9174
			12:[f6<1554.5] yes=25,no=26,missing=26,gain=2.42524979e+09,cover=29341
				25:[f6<1142.5] yes=51,no=52,missing=52,gain=463132672,cover=11235
					51:[f3<1968.5] yes=103,no=104,missing=103,gain=91602432,cover=2920
						103:leaf=100.321526,cover=755
						104:leaf=141.126114,cover=2165
					52:[f5<28.2150002] yes=105,no=106,missing=105,gain=239699968,cover=8315
						105:leaf=203.206543,cover=2482
						106:leaf=165.867142,cover=5833
				26:[f5<28.2150002] yes=53,no=54,missing=53,gain=1.52249958e+09,cover=18106
					53:[f0<3984.91211] yes=107,no=108,missing=108,gain=503226368,cover=6559
						107:leaf=239.582062,cover=3893
						108:leaf=296.351807,cover=2666
					54:[f3<3694.04297] yes=109,no=110,missing=109,gain=1.12983245e+09,cover=11547
						109:leaf=169.508011,cover=5519
						110:leaf=232.237473,cover=6028
		6:[f6<3575.5] yes=13,no=14,missing=14,gain=2.31499366e+10,cover=20220
			13:[f6<1691.5] yes=27,no=28,missing=28,gain=3.06855936e+09,cover=14363
				27:[f3<3071.63135] yes=55,no=56,missing=55,gain=237273088,cover=2537
					55:[f6<1397.5] yes=111,no=112,missing=112,gain=76136704,cover=1037
						111:leaf=150.388657,cover=582
						112:leaf=206.022812,cover=455
					56:[f6<1392.5] yes=113,no=114,missing=114,gain=73938432,cover=1500
						113:leaf=205.623398,cover=512
						114:leaf=254.163239,cover=988
				28:[f0<7633.95996] yes=57,no=58,missing=58,gain=1.40294554e+09,cover=11826
					57:[f5<45.5950012] yes=115,no=116,missing=115,gain=701775872,cover=8301
						115:leaf=340.229858,cover=4148
						116:leaf=281.685333,cover=4153
					58:[f6<1692.5] yes=117,no=118,missing=118,gain=2.02010624e+09,cover=3525
						117:leaf=2989.8623,cover=2
						118:leaf=384.240265,cover=3523
			14:[f6<4440.5] yes=29,no=30,missing=30,gain=3.95880038e+09,cover=5857
				29:[f5<28.2150002] yes=59,no=60,missing=59,gain=955097088,cover=3640
					59:[f0<8896] yes=119,no=120,missing=120,gain=602132480,cover=1531
						119:leaf=495.7565,cover=980
						120:leaf=629.488586,cover=551
					60:[f2<8123.5] yes=121,no=122,missing=122,gain=298684416,cover=2109
						121:leaf=394.817719,cover=917
						122:leaf=473.105927,cover=1192
				30:[f0<8618.5] yes=61,no=62,missing=62,gain=2.21652582e+09,cover=2217
					61:[f3<4183.66211] yes=123,no=124,missing=124,gain=450301952,cover=1043
						123:leaf=431.268372,cover=270
						124:leaf=585.928711,cover=773
					62:[f0<11955.5] yes=125,no=126,missing=126,gain=481722368,cover=1174
						125:leaf=696.996948,cover=750
						126:leaf=837.750488,cover=424
booster[7]
0:[f0<2363.56445] yes=1,no=2,missing=1,gain=2.83381989e+11,cover=1920441
	1:[f0<685.887451] yes=3,no=4,missing=3,gain=4.46145208e+10,cover=1850027
		3:[f0<215.3405] yes=7,no=8,missing=7,gain=6.06708992e+09,cover=1706008
			7:[f0<76.2460022] yes=15,no=16,missing=15,gain=775679616,cover=1483913
				15:[f4<8487.50098] yes=31,no=32,missing=31,gain=328906560,cover=1282456
					31:[f4<1176.15796] yes=63,no=64,missing=63,gain=126601136,cover=1282263
						63:leaf=0.378272623,cover=1278787
						64:leaf=19.4858704,cover=3476
					32:[f0<0.5] yes=65,no=66,missing=66,gain=808635008,cover=193
						65:leaf=558.389465,cover=35
						66:leaf=32.9782867,cover=158
				16:[f4<160.985397] yes=33,no=34,missing=33,gain=41224448,cover=201457
					33:[f0<109.395996] yes=67,no=68,missing=68,gain=18292800,cover=138472
						67:leaf=4.59116364,cover=48387
						68:leaf=7.0020256,cover=90085
					34:[f5<221.240005] yes=69,no=70,missing=70,gain=14692032,cover=62985
						69:leaf=8.29157543,cover=45318
						70:leaf=11.6921949,cover=17667
			8:[f0<430.388489] yes=17,no=18,missing=18,gain=701495296,cover=222095
				17:[f4<405.999023] yes=35,no=36,missing=35,gain=108791296,cover=142218
					35:[f3<225.087006] yes=71,no=72,missing=72,gain=45669376,cover=116920
						71:leaf=11.2287617,cover=48449
						72:leaf=15.2415314,cover=68471
					36:[f5<221.240005] yes=73,no=74,missing=74,gain=17451392,cover=25298
						73:leaf=19.18009,cover=18270
						74:leaf=25.0507412,cover=7028
				18:[f4<704.114014] yes=37,no=38,missing=37,gain=130498560,cover=79877
					37:[f3<312.992981] yes=75,no=76,missing=76,gain=64261120,cover=64835
						75:leaf=18.5023804,cover=13554
						76:leaf=26.2480259,cover=51281
					38:[f6<3885.5] yes=77,no=78,missing=78,gain=23054848,cover=15042
						77:leaf=33.7996178,cover=13819
						78:leaf=48.1567268,cover=1223
		4:[f0<1468.00244] yes=9,no=10,missing=10,gain=5.62286592e+09,cover=144019
			9:[f0<1072.19446] yes=19,no=20,missing=20,gain=791734272,cover=99826
				19:[f4<986.598999] yes=39,no=40,missing=39,gain=228012032,cover=63976
					39:[f3<521.469971] yes=79,no=80,missing=80,gain=111130112,cover=48071
						79:leaf=30.5430698,cover=13182
						80:leaf=41.3274536,cover=34889
					40:[f4<1698.92749] yes=81,no=82,missing=82,gain=51674624,cover=15905
						81:leaf=49.4908676,cover=13013
						82:leaf=64.3056107,cover=2892
				20:[f3<816.094971] yes=41,no=42,missing=42,gain=194093056,cover=35850
					41:[f5<30.1049995] yes=83,no=84,missing=83,gain=62554368,cover=9625
						83:leaf=58.0364151,cover=3880
						84:leaf=41.5728378,cover=5745
					42:[f5<221.240005] yes=85,no=86,missing=86,gain=126945280,cover=26225
						85:leaf=60.1133804,cover=17985
						86:leaf=75.1255264,cover=8240
			10:[f4<1884.41846] yes=21,no=22,missing=21,gain=818450432,cover=44193
				21:[f3<1307.74048] yes=43,no=44,missing=44,gain=315439104,cover=29855
					43:[f5<219.240005] yes=87,no=88,missing=88,gain=172456960,cover=12862
						87:leaf=60.4977226,cover=7664
						88:leaf=84.1258469,cover=5198
					44:[f5<27.75] yes=89,no=90,missing=89,gain=212708352,cover=16993
						89:leaf=108.628075,cover=4824
						90:leaf=83.7681656,cover=12169
				22:[f5<27.75] yes=45,no=46,missing=45,gain=333805568,cover=14338
					45:[f6<745.5] yes=91,no=92,missing=92,gain=208173056,cover=4604
						91:leaf=34.9799805,cover=207
						92:leaf=137.794891,cover=4397
					46:[f0<1819.02551] yes=93,no=94,missing=94,gain=54171648,cover=9734
						93:leaf=89.4031296,cover=3093
						94:leaf=105.5718,cover=6641
	2:[f0<6066.14648] yes=5,no=6,missing=6,gain=5.00078019e+10,cover=70414
		5:[f0<4182.01611] yes=11,no=12,missing=12,gain=8.1714217e+09,cover=57086
			11:[f5<221.240005] yes=23,no=24,missing=24,gain=1.77587814e+09,cover=42296
				23:[f4<3245.50732] yes=47,no=48,missing=47,gain=1.1037655e+09,cover=28728
					47:[f3<1956.22998] yes=95,no=96,missing=96,gain=581283840,cover=20613
						95:leaf=96.5736389,cover=5924
						96:leaf=133.726761,cover=14689
					48:[f0<3111.12256] yes=97,no=98,missing=98,gain=298342400,cover=8115
						97:leaf=143.216965,cover=3279
						98:leaf=182.467239,cover=4836
				24:[f6<1143.5] yes=49,no=50,missing=50,gain=1.19839949e+09,cover=13568
					49:[f6<934.5] yes=99,no=100,missing=100,gain=178039808,cover=1749
						99:leaf=56.1500053,cover=574
						100:leaf=124.246849,cover=1175
					50:[f0<3302.94751] yes=101,no=102,missing=102,gain=473190400,cover=11819
						101:leaf=174.399216,cover=7121
						102:leaf=215.439072,cover=4698
			12:[f6<2860.5] yes=25,no=26,missing=26,gain=2.47563878e+09,cover=14790
				25:[f6<1454.5] yes=51,no=52,missing=52,gain=1.13238016e+09,cover=11084
					51:[f3<2502] yes=103,no=104,missing=103,gain=200462848,cover=2924
						103:leaf=122.233582,cover=1007
						104:leaf=177.658722,cover=1917
					52:[f5<221.240005] yes=105,no=106,missing=106,gain=517185536,cover=8160
						105:leaf=212.6147,cover=5290
						106:leaf=265.601929,cover=2870
				26:[f3<3754] yes=53,no=54,missing=53,gain=780677120,cover=3706
					53:[f5<28.75] yes=107,no=108,missing=107,gain=319232000,cover=1259
						107:leaf=300.030487,cover=546
						108:leaf=197.578796,cover=713
					54:[f5<221.240005] yes=109,no=110,missing=110,gain=431472640,cover=2447
						109:leaf=309.604156,cover=1637
						110:leaf=399.975739,cover=810
		6:[f6<3998.5] yes=13,no=14,missing=14,gain=1.40747735e+10,cover=13328
			13:[f6<2972.5] yes=27,no=28,missing=28,gain=2.5995264e+09,cover=9986
				27:[f6<1690.5] yes=55,no=56,missing=56,gain=575946752,cover=5032
					55:[f6<1234.5] yes=111,no=112,missing=112,gain=97402112,cover=839
						111:leaf=127.56411,cover=155
						112:leaf=216.905273,cover=684
					56:[f6<1692.5] yes=113,no=114,missing=114,gain=694325248,cover=4193
						113:leaf=1228.23669,cover=7
						114:leaf=290.031738,cover=4186
				28:[f5<40.8850021] yes=57,no=58,missing=57,gain=1.00254515e+09,cover=4954
					57:[f0<16381.5] yes=115,no=116,missing=116,gain=822157312,cover=2086
						115:leaf=423.374908,cover=2051
						116:leaf=910.874023,cover=35
					58:[f3<5414.5] yes=117,no=118,missing=117,gain=309190656,cover=2868
						117:leaf=286.113647,cover=794
						118:leaf=360.81723,cover=2074
			14:[f0<8880.7832] yes=29,no=30,missing=30,gain=1.49210726e+09,cover=3342
				29:[f5<28.6399994] yes=59,no=60,missing=59,gain=316264448,cover=1679
					59:[f4<6832.5] yes=119,no=120,missing=119,gain=179150848,cover=1085
						119:leaf=487.950684,cover=565
						120:leaf=575.355164,cover=520
					60:[f3<84.8899994] yes=121,no=122,missing=121,gain=233548800,cover=594
						121:leaf=734.24054,cover=26
						122:leaf=421.23642,cover=568
				30:[f5<34.1800003] yes=61,no=62,missing=61,gain=684662784,cover=1663
					61:[f6<4931.5] yes=123,no=124,missing=124,gain=513552384,cover=1178
						123:leaf=626.644897,cover=803
						124:leaf=774.35791,cover=375
					62:[f0<21798.5] yes=125,no=126,missing=126,gain=179976192,cover=485
						125:leaf=520.793396,cover=480
						126:leaf=1113.12671,cover=5
booster[8]
0:[f0<1880.05249] yes=1,no=2,missing=1,gain=2.29695472e+11,cover=1920594
	1:[f0<484.679504] yes=3,no=4,missing=3,gain=2.49395384e+10,cover=1829323
		3:[f1<167.817993] yes=7,no=8,missing=7,gain=2.79409331e+09,cover=1647899
			7:[f0<56.0515022] yes=15,no=16,missing=15,gain=484438176,cover=1447561
				15:[f1<13.0009995] yes=31,no=32,missing=31,gain=39640236,cover=1237458
					31:[f4<6901.61963] yes=63,no=64,missing=63,gain=44107560,cover=1058559
						63:leaf=-0.00972925685,cover=1058399
						64:leaf=52.3354454,cover=160
					32:[f1<40.6709976] yes=65,no=66,missing=66,gain=7484240,cover=178899
						65:leaf=1.19744837,cover=127585
						66:leaf=2.62754083,cover=51314
				16:[f0<260.104492] yes=33,no=34,missing=34,gain=124713728,cover=210103
					33:[f1<101.362] yes=67,no=68,missing=68,gain=47191776,cover=189815
						67:leaf=2.78641534,cover=80304
						68:leaf=5.97801542,cover=109511
					34:[f1<335.612] yes=69,no=70,missing=70,gain=49216672,cover=20288
						69:leaf=6.63075495,cover=7781
						70:leaf=16.7612553,cover=12507
			8:[f3<2787.8584] yes=17,no=18,missing=17,gain=585744384,cover=200338
				17:[f1<335.028503] yes=35,no=36,missing=36,gain=378337024,cover=200034
					35:[f1<254.005493] yes=71,no=72,missing=72,gain=35091328,cover=131344
						71:leaf=8.97957516,cover=82931
						72:leaf=12.3682251,cover=48413
					36:[f1<531.303467] yes=73,no=74,missing=74,gain=104047872,cover=68690
						73:leaf=17.1043987,cover=51110
						74:leaf=26.0244884,cover=17580
				18:[f0<0.5] yes=37,no=38,missing=38,gain=773283264,cover=304
					37:[f2<9383.72461] yes=75,no=76,missing=76,gain=305289984,cover=146
						75:leaf=267.821228,cover=133
						76:leaf=766.547852,cover=13
					38:[f4<3361.91162] yes=77,no=78,missing=77,gain=15956708,cover=158
						77:leaf=14.5945387,cover=126
						78:leaf=-63.4560013,cover=32
		4:[f1<1201.70581] yes=9,no=10,missing=9,gain=4.52009574e+09,cover=181424
			9:[f1<751.987] yes=19,no=20,missing=20,gain=976642048,cover=139171
				19:[f1<557.505493] yes=39,no=40,missing=40,gain=109937664,cover=68686
					39:[f0<1305.5] yes=79,no=80,missing=80,gain=86429568,cover=36309
						79:leaf=19.9548798,cover=35655
						80:leaf=56.6214256,cover=654
					40:[f2<1080.32446] yes=81,no=82,missing=81,gain=14218752,cover=32377
						81:leaf=27.8534546,cover=28465
						82:leaf=34.300972,cover=3912
				20:[f0<1126.97144] yes=41,no=42,missing=42,gain=252748800,cover=70485
					41:[f1<889.175049] yes=83,no=84,missing=83,gain=103133696,cover=50982
						83:leaf=33.6599541,cover=29854
						84:leaf=42.7961426,cover=21128
					42:[f1<2403.36206] yes=85,no=86,missing=86,gain=143320064,cover=19503
						85:leaf=45.4443893,cover=13985
						86:leaf=64.4920273,cover=5518
			10:[f1<1772.12549] yes=21,no=22,missing=22,gain=790407168,cover=42253
				21:[f1<1447.07959] yes=43,no=44,missing=44,gain=78314496,cover=28306
					43:[f4<1238.1355] yes=87,no=88,missing=87,gain=16029696,cover=15612
						87:leaf=53.5087357,cover=10210
						88:leaf=60.3094444,cover=5402
					44:[f4<1328.5] yes=89,no=90,missing=89,gain=17851904,cover=12694
						89:leaf=63.3072701,cover=7510
						90:leaf=71.0296936,cover=5184
				22:[f1<2473.1355] yes=45,no=46,missing=46,gain=177599488,cover=13947
					45:[f4<1996.5] yes=91,no=92,missing=91,gain=31737344,cover=10689
						91:leaf=80.2915649,cover=8036
						92:leaf=93.0416946,cover=2653
					46:[f0<1081.15259] yes=93,no=94,missing=94,gain=57569792,cover=3258
						93:leaf=62.3077965,cover=237
						94:leaf=113.925758,cover=3021
	2:[f1<5536.68408] yes=5,no=6,missing=5,gain=5.17165875e+10,cover=91271
		5:[f0<4383.28613] yes=11,no=12,missing=12,gain=1.0641408e+10,cover=77009
			11:[f1<3146.00586] yes=23,no=24,missing=23,gain=5.05592218e+09,cover=63777
				23:[f1<2210.59131] yes=47,no=48,missing=48,gain=1.44796877e+09,cover=45233
					47:[f4<1697.3125] yes=95,no=96,missing=95,gain=234575872,cover=19010
						95:leaf=70.3603287,cover=10340
						96:leaf=92.6929855,cover=8670
					48:[f4<2420.5] yes=97,no=98,missing=97,gain=351285248,cover=26223
						97:leaf=106.675476,cover=14874
						98:leaf=130.080215,cover=11349
				24:[f1<4182.01611] yes=49,no=50,missing=50,gain=553332736,cover=18544
					49:[f1<3488.8335] yes=99,no=100,missing=100,gain=99180544,cover=12897
						99:leaf=141.542923,cover=5335
						100:leaf=159.554291,cover=7562
					50:[f4<4093.61304] yes=101,no=102,missing=101,gain=109670400,cover=5647
						101:leaf=181.024445,cover=4105
						102:leaf=212.804123,cover=1542
			12:[f1<86] yes=25,no=26,missing=25,gain=2.7675648e+09,cover=13232
				25:[f0<7033.5] yes=51,no=52,missing=52,gain=1.5428567e+09,cover=2895
					51:[f2<761.94104] yes=103,no=104,missing=104,gain=180563968,cover=1852
						103:leaf=348.690704,cover=171
						104:leaf=239.281357,cover=1681
					52:[f0<9253.37793] yes=105,no=106,missing=106,gain=388601856,cover=1043
						105:leaf=350.112518,cover=619
						106:leaf=476.808014,cover=424
				26:[f3<3468] yes=53,no=54,missing=53,gain=910192640,cover=10337
					53:[f1<3699.5] yes=107,no=108,missing=108,gain=415613952,cover=4381
						107:leaf=130.921021,cover=2384
						108:leaf=192.93782,cover=1997
					54:[f0<6763.5] yes=109,no=110,missing=110,gain=429985792,cover=5956
						109:leaf=204.378296,cover=4556
						110:leaf=268.077698,cover=1400
		6:[f1<8982.77734] yes=13,no=14,missing=14,gain=8.8372183e+09,cover=14262
			13:[f1<6860.16406] yes=27,no=28,missing=28,gain=1.29581875e+09,cover=10462
				27:[f0<6960.5] yes=55,no=56,missing=56,gain=380542976,cover=5639
					55:[f4<10338.5] yes=111,no=112,missing=111,gain=88008704,cover=4077
						111:leaf=243.850266,cover=3874
						112:leaf=313.541992,cover=203
					56:[f3<5596.68652] yes=113,no=114,missing=113,gain=125036544,cover=1562
						113:leaf=267.4758,cover=577
						114:leaf=328.205536,cover=985
				28:[f0<14719] yes=57,no=58,missing=58,gain=473407488,cover=4823
					57:[f1<7947.82715] yes=115,no=116,missing=116,gain=278847488,cover=4699
						115:leaf=310.192627,cover=2963
						116:leaf=361.62326,cover=1736
					58:[f0<14734.5] yes=117,no=118,missing=118,gain=405514752,cover=124
						117:leaf=1711.9104,cover=2
						118:leaf=495.605927,cover=122
			14:[f0<9669.5] yes=29,no=30,missing=30,gain=1.44069427e+09,cover=3800
				29:[f0<7100.91992] yes=59,no=60,missing=60,gain=377098240,cover=2482
					59:[f0<4048.27393] yes=119,no=120,missing=120,gain=194387968,cover=1060
						119:leaf=201.121674,cover=59
						120:leaf=393.277435,cover=1001
					60:[f1<12497.0977] yes=121,no=122,missing=122,gain=220686336,cover=1422
						121:leaf=439.938782,cover=1081
						122:leaf=536.470886,cover=341
				30:[f0<16312] yes=61,no=62,missing=62,gain=322486272,cover=1318
					61:[f1<11079] yes=123,no=124,missing=124,gain=268718080,cover=1258
						123:leaf=478.016602,cover=416
						124:leaf=581.486145,cover=842
					62:[f0<16483.5] yes=125,no=126,missing=126,gain=497623296,cover=60
						125:leaf=1699.35608,cover=5
						126:leaf=683.106018,cover=55
booster[9]
0:[f3<1911.90796] yes=1,no=2,missing=1,gain=1.66128271e+11,cover=1920262
	1:[f2<526.73999] yes=3,no=4,missing=3,gain=2.2041387e+10,cover=1835979
		3:[f4<199.299988] yes=7,no=8,missing=7,gain=2.58468941e+09,cover=1666494
			7:[f2<80.2919998] yes=15,no=16,missing=16,gain=823046912,cover=1497983
				15:[f3<29.1985016] yes=31,no=32,missing=31,gain=60812308,cover=1244276
					31:[f2<6.02750015] yes=63,no=64,missing=64,gain=17761276,cover=1113611
						63:leaf=0.0898725912,cover=884031
						64:leaf=1.0770663,cover=229580
					32:[f3<796.5] yes=65,no=66,missing=66,gain=22672296,cover=130665
						65:leaf=2.43986464,cover=129330
						66:leaf=15.5341721,cover=1335
				16:[f3<302.214478] yes=33,no=34,missing=33,gain=105520128,cover=253707
					33:[f6<1568.59253] yes=67,no=68,missing=67,gain=74466240,cover=232520
						67:leaf=4.89516926,cover=154525
						68:leaf=8.6855793,cover=77995
					34:[f5<221.240005] yes=69,no=70,missing=70,gain=51806784,cover=21187
						69:leaf=10.7392712,cover=16049
						70:leaf=22.2777462,cover=5138
			8:[f4<4208.29199] yes=17,no=18,missing=18,gain=868909312,cover=168511
				17:[f4<452.505493] yes=35,no=36,missing=36,gain=351186688,cover=167483
					35:[f5<221.240005] yes=71,no=72,missing=72,gain=90105472,cover=122918
						71:leaf=9.43475628,cover=82393
						72:leaf=15.1944962,cover=40525
					36:[f5<59.6049995] yes=73,no=74,missing=74,gain=134177792,cover=44565
						73:leaf=13.993845,cover=15007
						74:leaf=25.6061077,cover=29558
				18:[f5<59.4850006] yes=37,no=38,missing=37,gain=616862080,cover=1028
					37:[f5<57.8450012] yes=75,no=76,missing=76,gain=219357984,cover=712
						75:leaf=-14.4126587,cover=280
						76:leaf=99.1203918,cover=432
					38:[f6<3783] yes=77,no=78,missing=78,gain=141039872,cover=316
						77:leaf=197.425446,cover=281
						78:leaf=411.253998,cover=35
		4:[f2<1217.92651] yes=9,no=10,missing=10,gain=3.42930842e+09,cover=169485
			9:[f4<805.989014] yes=19,no=20,missing=19,gain=809100288,cover=116653
				19:[f3<534.802002] yes=39,no=40,missing=40,gain=286716928,cover=77566
					39:[f6<4064.5] yes=79,no=80,missing=80,gain=49664896,cover=30098
						79:leaf=16.7426777,cover=28696
						80:leaf=36.0177841,cover=1402
					40:[f5<221.240005] yes=81,no=82,missing=82,gain=212875776,cover=47468
						81:leaf=25.9888706,cover=34393
						82:leaf=40.9817963,cover=13075
				20:[f5<221.240005] yes=41,no=42,missing=42,gain=355748864,cover=39087
					41:[f2<864.587036] yes=83,no=84,missing=84,gain=53455872,cover=24187
						83:leaf=30.3104439,cover=11077
						84:leaf=39.7568398,cover=13110
					42:[f4<1571.44202] yes=85,no=86,missing=86,gain=101060608,cover=14900
						85:leaf=51.2991753,cover=12318
						86:leaf=73.0870132,cover=2582
			10:[f4<1424.76599] yes=21,no=22,missing=22,gain=1.13403085e+09,cover=52832
				21:[f5<92.4900055] yes=43,no=44,missing=43,gain=434840064,cover=31408
					43:[f2<5523.84082] yes=87,no=88,missing=88,gain=1.00323994e+09,cover=23231
						87:leaf=53.8951225,cover=22794
						88:leaf=206.710846,cover=437
					44:[f3<291.264008] yes=89,no=90,missing=90,gain=275670720,cover=8177
						89:leaf=-10.2250233,cover=1412
						90:leaf=38.3462029,cover=6765
				22:[f5<34.5550003] yes=45,no=46,missing=45,gain=643398656,cover=21424
					45:[f2<5395.90723] yes=91,no=92,missing=92,gain=348919296,cover=7848
						91:leaf=100.003983,cover=7747
						92:leaf=286.450531,cover=101
					46:[f2<3705.5] yes=93,no=94,missing=94,gain=179164672,cover=13576
						93:leaf=63.2672615,cover=12611
						94:leaf=108.00753,cover=965
	2:[f4<5038.36328] yes=5,no=6,missing=5,gain=3.05053368e+10,cover=84283
		5:[f2<3589.96045] yes=11,no=12,missing=12,gain=7.01520282e+09,cover=69957
			11:[f5<221.240005] yes=23,no=24,missing=24,gain=3.11625318e+09,cover=49040
				23:[f2<2101.64502] yes=47,no=48,missing=48,gain=1.07143987e+09,cover=33287
					47:[f2<1553.36694] yes=95,no=96,missing=96,gain=110461440,cover=13694
						95:leaf=54.2396927,cover=6834
						96:leaf=72.2336197,cover=6860
					48:[f6<1364.5] yes=97,no=98,missing=98,gain=272971776,cover=19593
						97:leaf=86.6204224,cover=8794
						98:leaf=110.393776,cover=10799
				24:[f6<1277.85596] yes=49,no=50,missing=50,gain=1.16026368e+09,cover=15753
					49:[f6<754.5] yes=99,no=100,missing=100,gain=356883456,cover=4156
						99:leaf=9.84843731,cover=456
						100:leaf=103.629944,cover=3700
					50:[f2<1962.5] yes=101,no=102,missing=102,gain=899606528,cover=11597
						101:leaf=113.689224,cover=3635
						102:leaf=173.801743,cover=7962
			12:[f6<3993] yes=25,no=26,missing=26,gain=4.71568384e+09,cover=20917
				25:[f3<3827.63794] yes=51,no=52,missing=52,gain=1.92739328e+09,cover=19771
					51:[f3<2803.70654] yes=103,no=104,missing=104,gain=233121792,cover=9820
						103:leaf=111.178955,cover=4402
						104:leaf=142.266541,cover=5418
					52:[f6<2776.5] yes=105,no=106,missing=106,gain=967200768,cover=9951
						105:leaf=172.436035,cover=7393
						106:leaf=243.898239,cover=2558
				26:[f3<3981] yes=53,no=54,missing=54,gain=836342784,cover=1146
					53:[f5<210.679993] yes=107,no=108,missing=108,gain=84835200,cover=298
						107:leaf=164.6651,cover=141
						108:leaf=274.241913,cover=157
					54:[f5<48.1650009] yes=109,no=110,missing=109,gain=271680512,cover=848
						109:leaf=453.887299,cover=622
						110:leaf=322.038788,cover=226
		6:[f6<3575.5] yes=13,no=14,missing=14,gain=9.62198733e+09,cover=14326
			13:[f6<2429.5] yes=27,no=28,missing=28,gain=1.50121267e+09,cover=9936
				27:[f6<1814.5] yes=55,no=56,missing=56,gain=305946624,cover=4104
					55:[f6<1188.5] yes=111,no=112,missing=112,gain=97908224,cover=2083
						111:leaf=108.292435,cover=378
						112:leaf=165.165894,cover=1705
					56:[f5<44.875] yes=113,no=114,missing=113,gain=194408448,cover=2021
						113:leaf=240.779373,cover=1019
						114:leaf=178.079849,cover=1002
				28:[f5<40.9449997] yes=57,no=58,missing=57,gain=558669824,cover=5832
					57:[f6<3293.5] yes=115,no=116,missing=116,gain=145768448,cover=2135
						115:leaf=285.903503,cover=1582
						116:leaf=347.33728,cover=553
					58:[f2<6415.88672] yes=117,no=118,missing=118,gain=537882624,cover=3697
						117:leaf=191.893799,cover=1539
						118:leaf=269.654449,cover=2158
			14:[f6<4494.5] yes=29,no=30,missing=30,gain=2.02076979e+09,cover=4390
				29:[f5<40.8850021] yes=59,no=60,missing=59,gain=514416640,cover=2954
					59:[f5<39.6200027] yes=119,no=120,missing=120,gain=169654272,cover=1610
						119:leaf=328.992676,cover=321
						120:leaf=413.819397,cover=1289
					60:[f2<8107] yes=121,no=122,missing=122,gain=223226880,cover=1344
						121:leaf=269.154144,cover=651
						122:leaf=352.401428,cover=693
				30:[f3<6032.41211] yes=61,no=62,missing=62,gain=550715392,cover=1436
					61:[f2<4460.78516] yes=123,no=124,missing=124,gain=74412544,cover=394
						123:leaf=337.743896,cover=147
						124:leaf=436.514221,cover=247
					62:[f5<54.3850021] yes=125,no=126,missing=126,gain=141389824,cover=1042
						125:leaf=442.766754,cover=148
						126:leaf=558.396179,cover=894
booster[10]
0:[f0<2393.08936] yes=1,no=2,missing=1,gain=1.53982763e+11,cover=1920219
	1:[f0<715.281494] yes=3,no=4,missing=3,gain=2.44111094e+10,cover=1850843
		3:[f0<233.580002] yes=7,no=8,missing=7,gain=3.50744883e+09,cover=1712003
			7:[f1<103.973] yes=15,no=16,missing=15,gain=557898880,cover=1501585
				15:[f0<41.0009995] yes=31,no=32,missing=31,gain=75530728,cover=1342028
					31:[f3<2043.5365] yes=63,no=64,missing=63,gain=18849046,cover=1196731
						63:leaf=0.0650288984,cover=1195366
						64:leaf=-11.6884756,cover=1365
					32:[f1<79.8404999] yes=65,no=66,missing=66,gain=15346536,cover=145297
						65:leaf=1.55749416,cover=81560
						66:leaf=3.62861109,cover=63737
				16:[f3<2777.46436] yes=33,no=34,missing=33,gain=494592384,cover=159557
					33:[f3<1040.3595] yes=67,no=68,missing=67,gain=87684160,cover=159302
						67:leaf=6.19943762,cover=158696
						68:leaf=44.2801743,cover=606
					34:[f0<0.5] yes=69,no=70,missing=70,gain=564311808,cover=255
						69:leaf=268.27597,cover=151
						70:leaf=-33.7324753,cover=104
			8:[f1<494.682007] yes=17,no=18,missing=17,gain=584677376,cover=210418
				17:[f1<324.994507] yes=35,no=36,missing=36,gain=137459584,cover=152293
					35:[f1<189.3965] yes=71,no=72,missing=72,gain=14732576,cover=72546
						71:leaf=5.89165592,cover=18180
						72:leaf=9.18076611,cover=54366
					36:[f5<28.2150002] yes=73,no=74,missing=73,gain=20040832,cover=79747
						73:leaf=16.7085629,cover=25155
						74:leaf=13.2954254,cover=54592
				18:[f1<788.178467] yes=37,no=38,missing=38,gain=143363072,cover=58125
					37:[f1<636.479126] yes=75,no=76,missing=76,gain=25516032,cover=44941
						75:leaf=18.8177185,cover=28782
						76:leaf=23.7871895,cover=16159
					38:[f1<1054.55298] yes=77,no=78,missing=78,gain=28006400,cover=13184
						77:leaf=29.756052,cover=9811
						78:leaf=40.3375969,cover=3373
		4:[f1<1728.6416] yes=9,no=10,missing=9,gain=3.90852608e+09,cover=138840
			9:[f1<1113.68152] yes=19,no=20,missing=20,gain=904770560,cover=109937
				19:[f1<813.011475] yes=39,no=40,missing=40,gain=122561536,cover=58594
					39:[f1<51.5] yes=79,no=80,missing=80,gain=135293312,cover=30052
						79:leaf=58.9347496,cover=1112
						80:leaf=23.3975811,cover=28940
					40:[f1<946.975464] yes=81,no=82,missing=82,gain=13293056,cover=28542
						81:leaf=31.4904327,cover=12963
						82:leaf=35.84338,cover=15579
				20:[f0<1215.20496] yes=41,no=42,missing=42,gain=186161152,cover=51343
					41:[f1<1167.16504] yes=83,no=84,missing=83,gain=79832832,cover=23376
						83:leaf=34.2600365,cover=10451
						84:leaf=46.02565,cover=12925
					42:[f1<1490.98755] yes=85,no=86,missing=86,gain=112360448,cover=27967
						85:leaf=46.0919609,cover=13077
						86:leaf=58.810955,cover=14890
			10:[f1<2745.5] yes=21,no=22,missing=22,gain=559177728,cover=28903
				21:[f1<2276.33838] yes=43,no=44,missing=44,gain=102403072,cover=22842
					43:[f1<1989.16943] yes=87,no=88,missing=88,gain=22873088,cover=16093
						87:leaf=64.1178207,cover=9073
						88:leaf=71.7948608,cover=7020
					44:[f5<91.2949982] yes=89,no=90,missing=89,gain=16180736,cover=6749
						89:leaf=84.7374344,cover=5340
						90:leaf=72.4448624,cover=1409
				22:[f1<3202.5] yes=45,no=46,missing=46,gain=78967808,cover=6061
					45:[f5<47.2350006] yes=91,no=92,missing=91,gain=22906624,cover=3150
						91:leaf=100.265862,cover=2283
						92:leaf=80.810318,cover=867
					46:[f0<1516.5] yes=93,no=94,missing=94,gain=76222464,cover=2911
						93:leaf=64.1572495,cover=245
						94:leaf=122.859924,cover=2666
	2:[f1<6163.05273] yes=5,no=6,missing=5,gain=2.85519708e+10,cover=69376
		5:[f0<4625.57031] yes=11,no=12,missing=12,gain=6.2014505e+09,cover=58118
			11:[f1<3258.66016] yes=23,no=24,missing=24,gain=2.44782285e+09,cover=45019
				23:[f1<2304.84155] yes=47,no=48,missing=48,gain=347492352,cover=23385
					47:[f1<38.5] yes=95,no=96,missing=96,gain=170113024,cover=9549
						95:leaf=142.134583,cover=360
						96:leaf=72.0386887,cover=9189
					48:[f1<2911.42847] yes=97,no=98,missing=98,gain=53941248,cover=13836
						97:leaf=94.8123398,cover=8884
						98:leaf=107.954857,cover=4952
				24:[f1<4347.97363] yes=49,no=50,missing=49,gain=628129792,cover=21634
					49:[f5<28.2150002] yes=99,no=100,missing=99,gain=225859584,cover=15782
						99:leaf=141.004959,cover=5994
						100:leaf=116.271912,cover=9788
					50:[f5<28.2150002] yes=101,no=102,missing=101,gain=143680512,cover=5852
						101:leaf=177.676498,cover=3360
						102:leaf=145.697556,cover=2492
			12:[f0<7584.26953] yes=25,no=26,missing=26,gain=1.85092096e+09,cover=13099
				25:[f1<4438.18262] yes=51,no=52,missing=52,gain=763244544,cover=10526
					51:[f1<89.5] yes=103,no=104,missing=104,gain=508022784,cover=4698
						103:leaf=321.490631,cover=151
						104:leaf=135.277481,cover=4547
					52:[f5<28.2150002] yes=105,no=106,missing=105,gain=329166848,cover=5828
						105:leaf=231.58403,cover=1781
						106:leaf=179.706894,cover=4047
				26:[f5<217.339996] yes=53,no=54,missing=54,gain=696590336,cover=2573
					53:[f2<8986.56738] yes=107,no=108,missing=107,gain=373348352,cover=2069
						107:leaf=212.879715,cover=1475
						108:leaf=307.43219,cover=594
					54:[f1<97.7720032] yes=109,no=110,missing=109,gain=649665536,cover=504
						109:leaf=460.247162,cover=314
						110:leaf=224.029953,cover=190
		6:[f1<9361.53223] yes=13,no=14,missing=14,gain=4.3367383e+09,cover=11258
			13:[f0<7431.6709] yes=27,no=28,missing=28,gain=599089152,cover=7935
				27:[f1<7402.5] yes=55,no=56,missing=56,gain=255379456,cover=5170
					55:[f5<91.2949982] yes=111,no=112,missing=111,gain=47020032,cover=3023
						111:leaf=229.607956,cover=2543
						112:leaf=193.742599,cover=480
					56:[f5<91.0500031] yes=113,no=114,missing=113,gain=85106688,cover=2147
						113:leaf=276.85083,cover=1906
						114:leaf=211.265991,cover=241
				28:[f0<21072.5] yes=57,no=58,missing=58,gain=455909376,cover=2765
					57:[f5<219.240005] yes=115,no=116,missing=116,gain=437293056,cover=2753
						115:leaf=276.533783,cover=2147
						116:leaf=373.629608,cover=606
					58:[f5<44.3250008] yes=117,no=118,missing=118,gain=143226432,cover=12
						117:leaf=1082.97192,cover=9
						118:leaf=209.428131,cover=3
			14:[f0<9653] yes=29,no=30,missing=30,gain=871055360,cover=3323
				29:[f0<7478.43359] yes=59,no=60,missing=60,gain=193296384,cover=2115
					59:[f2<10649.5] yes=119,no=120,missing=120,gain=160220160,cover=1071
						119:leaf=339.341156,cover=1004
						120:leaf=175.461365,cover=67
					60:[f1<14112.0361] yes=121,no=122,missing=122,gain=132754432,cover=1044
						121:leaf=378.292572,cover=933
						122:leaf=499.976898,cover=111
				30:[f5<39.8700027] yes=61,no=62,missing=61,gain=492390400,cover=1208
					61:[f5<39.5050011] yes=123,no=124,missing=123,gain=1.60473907e+09,cover=1010
						123:leaf=490.022522,cover=1009
						124:leaf=3347.08203,cover=1
					62:[f3<8294.5] yes=125,no=126,missing=125,gain=100687744,cover=198
						125:leaf=282.046417,cover=160
						126:leaf=469.989502,cover=38
booster[11]
0:[f1<2358.11914] yes=1,no=2,missing=1,gain=1.13945747e+11,cover=1921540
	1:[f3<698.150513] yes=3,no=4,missing=3,gain=2.08713093e+10,cover=1858344
		3:[f1<301.035004] yes=7,no=8,missing=7,gain=3.62244454e+09,cover=1717546
			7:[f3<98.3305054] yes=15,no=16,missing=15,gain=567401280,cover=1570917
				15:[f4<2372.24951] yes=31,no=32,missing=31,gain=190720224,cover=1331250
					31:[f1<18.8554993] yes=63,no=64,missing=64,gain=103726872,cover=1329749
						63:leaf=-0.0240222737,cover=969624
						64:leaf=1.96345294,cover=360125
					32:[f5<59.6449966] yes=65,no=66,missing=65,gain=215183648,cover=1501
						65:leaf=16.2637482,cover=1177
						66:leaf=108.203148,cover=324
				16:[f1<180.765991] yes=33,no=34,missing=34,gain=125374400,cover=239667
					33:[f1<120.810501] yes=67,no=68,missing=68,gain=21163072,cover=115619
						67:leaf=2.12384319,cover=58065
						68:leaf=4.8297801,cover=57554
					34:[f4<528.902466] yes=69,no=70,missing=69,gain=56659776,cover=124048
						69:leaf=7.54921055,cover=117642
						70:leaf=17.2063904,cover=6406
			8:[f1<859.411011] yes=17,no=18,missing=18,gain=800209920,cover=146629
				17:[f1<593.03949] yes=35,no=36,missing=36,gain=152872960,cover=126795
					35:[f1<424.546509] yes=71,no=72,missing=72,gain=37414656,cover=96911
						71:leaf=11.2106295,cover=54476
						72:leaf=15.1719046,cover=42435
					36:[f6<4044.5] yes=73,no=74,missing=74,gain=26174080,cover=29884
						73:leaf=20.2590904,cover=27526
						74:leaf=31.2439976,cover=2358
				18:[f1<1423.995] yes=37,no=38,missing=38,gain=156267264,cover=19834
					37:[f6<4265.5] yes=75,no=76,missing=76,gain=41742464,cover=15299
						75:leaf=29.5395603,cover=13183
						76:leaf=44.6851158,cover=2116
					38:[f6<5736.5] yes=77,no=78,missing=78,gain=73282176,cover=4535
						77:leaf=51.3708382,cover=4482
						78:leaf=168.786484,cover=53
		4:[f4<4040.22656] yes=9,no=10,missing=9,gain=5.17884314e+09,cover=140798
			9:[f1<1279.82751] yes=19,no=20,missing=20,gain=3.21533133e+09,cover=137207
				19:[f1<678.999023] yes=39,no=40,missing=40,gain=398654464,cover=74086
					39:[f3<14945.1914] yes=79,no=80,missing=80,gain=58707520,cover=26834
						79:leaf=15.7930479,cover=26832
						80:leaf=458.282959,cover=2
					40:[f1<981.942017] yes=81,no=82,missing=82,gain=75673088,cover=47252
						81:leaf=27.3606148,cover=25206
						82:leaf=35.3872147,cover=22046
				20:[f3<2172.3335] yes=41,no=42,missing=42,gain=948224000,cover=63121
					41:[f1<1688.01147] yes=83,no=84,missing=83,gain=315960320,cover=45170
						83:leaf=42.7320213,cover=30401
						84:leaf=60.5669365,cover=14769
					42:[f1<4716.10205] yes=85,no=86,missing=86,gain=570521600,cover=17951
						85:leaf=64.3828964,cover=12777
						86:leaf=103.759331,cover=5174
			10:[f6<4087.5] yes=21,no=22,missing=22,gain=1.5630889e+09,cover=3591
				21:[f1<1.5] yes=43,no=44,missing=43,gain=803167744,cover=3209
					43:[f6<2773.5] yes=87,no=88,missing=88,gain=445068288,cover=2050
						87:leaf=138.861404,cover=1256
						88:leaf=234.792221,cover=794
					44:[f1<843] yes=89,no=90,missing=90,gain=34824576,cover=1159
						89:leaf=24.5041752,cover=138
						90:leaf=78.2470856,cover=1021
				22:[f1<13] yes=45,no=46,missing=45,gain=390830592,cover=382
					45:[f3<4581] yes=91,no=92,missing=92,gain=131028992,cover=333
						91:leaf=248.501129,cover=59
						92:leaf=420.837158,cover=274
					46:[f1<63.5] yes=93,no=94,missing=94,gain=27502548,cover=49
						93:leaf=6.02232599,cover=23
						94:leaf=155.102188,cover=26
	2:[f1<6394.5] yes=5,no=6,missing=6,gain=2.23566971e+10,cover=63196
		5:[f1<4005.69604] yes=11,no=12,missing=12,gain=3.97288243e+09,cover=52731
			11:[f1<3258.66016] yes=23,no=24,missing=24,gain=641091584,cover=35751
				23:[f6<990.5] yes=47,no=48,missing=48,gain=242413568,cover=23241
					47:[f6<732.5] yes=95,no=96,missing=96,gain=50888256,cover=2189
						95:leaf=11.958952,cover=241
						96:leaf=60.7252579,cover=1948
					48:[f4<2312.09399] yes=97,no=98,missing=98,gain=98414592,cover=21052
						97:leaf=82.2917633,cover=8825
						98:leaf=96.2051697,cover=12227
				24:[f6<1132.5] yes=49,no=50,missing=50,gain=188559360,cover=12510
					49:[f6<876.5] yes=99,no=100,missing=100,gain=41235904,cover=1076
						99:leaf=30.5310459,cover=176
						100:leaf=83.6854782,cover=900
					50:[f4<3747.01709] yes=101,no=102,missing=101,gain=82297856,cover=11434
						101:leaf=113.698624,cover=8315
						102:leaf=132.907425,cover=3119
			12:[f6<1568.09253] yes=25,no=26,missing=26,gain=706768896,cover=16980
				25:[f6<1036.5] yes=51,no=52,missing=52,gain=200562688,cover=3583
					51:[f6<910] yes=103,no=104,missing=104,gain=15888758,cover=276
						103:leaf=4.98818827,cover=112
						104:leaf=53.8381615,cover=164
					52:[f5<40.4400024] yes=105,no=106,missing=105,gain=82467328,cover=3307
						105:leaf=135.535858,cover=2036
						106:leaf=102.787132,cover=1271
				26:[f1<4991.17676] yes=53,no=54,missing=54,gain=467406848,cover=13397
					53:[f4<3310.5] yes=107,no=108,missing=108,gain=147281920,cover=7016
						107:leaf=129.803009,cover=2686
						108:leaf=159.827377,cover=4330
					54:[f6<3009.5] yes=109,no=110,missing=110,gain=234944512,cover=6381
						109:leaf=172.656967,cover=4357
						110:leaf=214.18187,cover=2024
		6:[f6<4166] yes=13,no=14,missing=14,gain=3.98780006e+09,cover=10465
			13:[f6<3336.5] yes=27,no=28,missing=28,gain=863240192,cover=7768
				27:[f6<1395] yes=55,no=56,missing=56,gain=383670272,cover=4749
					55:[f4<4015] yes=111,no=112,missing=112,gain=22767732,cover=155
						111:leaf=34.7425652,cover=116
						112:leaf=122.76664,cover=39
					56:[f5<82.7799988] yes=113,no=114,missing=113,gain=250286080,cover=4594
						113:leaf=227.236893,cover=3970
						114:leaf=158.514374,cover=624
				28:[f5<73.8699951] yes=57,no=58,missing=57,gain=237205504,cover=3019
					57:[f1<10269.5] yes=115,no=116,missing=116,gain=160342016,cover=2458
						115:leaf=279.64267,cover=1847
						116:leaf=340.277832,cover=611
					58:[f6<3533.5] yes=117,no=118,missing=118,gain=34358528,cover=561
						117:leaf=177.233688,cover=148
						118:leaf=237.095627,cover=413
			14:[f1<9936.51758] yes=29,no=30,missing=30,gain=863633408,cover=2697
				29:[f4<3937] yes=59,no=60,missing=60,gain=204754944,cover=1131
					59:[f3<736.342529] yes=119,no=120,missing=120,gain=66931072,cover=270
						119:leaf=115.547806,cover=42
						120:leaf=257.02121,cover=228
					60:[f1<8241.5] yes=121,no=122,missing=122,gain=65203200,cover=861
						121:leaf=306.193756,cover=414
						122:leaf=365.815979,cover=447
				30:[f6<4931.5] yes=61,no=62,missing=62,gain=289728512,cover=1566
					61:[f3<6960.5] yes=123,no=124,missing=123,gain=94012416,cover=1042
						123:leaf=367.554688,cover=573
						124:leaf=432.733551,cover=469
					62:[f5<36.9449997] yes=125,no=126,missing=125,gain=130489344,cover=524
						125:leaf=509.909882,cover=464
						126:leaf=340.605591,cover=60
booster[12]
0:[f0<2477.99414] yes=1,no=2,missing=1,gain=1.02957187e+11,cover=1920083
	1:[f0<746.92749] yes=3,no=4,missing=3,gain=1.70151875e+10,cover=1854026
		3:[f0<239.865509] yes=7,no=8,missing=7,gain=2.50783821e+09,cover=1719006
			7:[f0<85.0895081] yes=15,no=16,missing=15,gain=337999360,cover=1507731
				15:[f4<11793.0273] yes=31,no=32,missing=31,gain=113345888,cover=1298585
					31:[f3<14.0015001] yes=63,no=64,missing=63,gain=35229852,cover=1298531
						63:leaf=-0.0768108293,cover=1061566
						64:leaf=1.2717334,cover=236965
					32:[f3<8493.33984] yes=65,no=66,missing=66,gain=301860096,cover=54
						65:leaf=6.66782999,cover=41
						66:leaf=544.643738,cover=13
				16:[f2<183.096008] yes=33,no=34,missing=33,gain=21079072,cover=209146
					33:[f5<221.240005] yes=67,no=68,missing=68,gain=13495248,cover=142034
						67:leaf=3.06539798,cover=89087
						68:leaf=5.08134317,cover=52947
					34:[f4<235.028] yes=69,no=70,missing=70,gain=9786240,cover=67112
						69:leaf=5.00053024,cover=40897
						70:leaf=7.47601032,cover=26215
			8:[f0<454.700012] yes=17,no=18,missing=18,gain=262243840,cover=211275
				17:[f4<320.137024] yes=35,no=36,missing=36,gain=43106176,cover=128536
					35:[f4<3.5] yes=71,no=72,missing=72,gain=11938432,cover=70789
						71:leaf=11.373765,cover=8809
						72:leaf=7.43862486,cover=61980
					36:[f2<386.0065] yes=73,no=74,missing=73,gain=21094912,cover=57747
						73:leaf=9.98309994,cover=33490
						74:leaf=13.8566389,cover=24257
				18:[f4<543.251465] yes=37,no=38,missing=38,gain=58535680,cover=82739
					37:[f5<28.2150002] yes=75,no=76,missing=75,gain=24659200,cover=41319
						75:leaf=17.5170574,cover=14182
						76:leaf=12.3697786,cover=27137
					38:[f4<980.18634] yes=77,no=78,missing=77,gain=29037312,cover=41420
						77:leaf=18.2146854,cover=33952
						78:leaf=25.1060638,cover=7468
		4:[f0<1583.99146] yes=9,no=10,missing=10,gain=1.98693478e+09,cover=135020
			9:[f0<1118.50903] yes=19,no=20,missing=20,gain=288790528,cover=94136
				19:[f4<1119.427] yes=39,no=40,missing=39,gain=84303872,cover=56136
					39:[f5<28.2150002] yes=79,no=80,missing=79,gain=59771392,cover=44333
						79:leaf=29.7018127,cover=14822
						80:leaf=21.9147949,cover=29511
					40:[f4<1925.73401] yes=81,no=82,missing=82,gain=26303744,cover=11803
						81:leaf=31.981842,cover=9941
						82:leaf=44.9581985,cover=1862
				20:[f5<221.240005] yes=41,no=42,missing=42,gain=100762624,cover=38000
					41:[f2<1280.96252] yes=83,no=84,missing=84,gain=89590528,cover=24936
						83:leaf=27.2879982,cover=10928
						84:leaf=39.3758659,cover=14008
					42:[f4<1529.01001] yes=85,no=86,missing=85,gain=56744192,cover=13064
						85:leaf=41.6932564,cover=10539
						86:leaf=58.4105721,cover=2525
			10:[f5<27.75] yes=21,no=22,missing=21,gain=324269056,cover=40884
				21:[f4<2143.7251] yes=43,no=44,missing=44,gain=181343232,cover=13193
					43:[f4<249.417999] yes=87,no=88,missing=88,gain=45827328,cover=8295
						87:leaf=83.2276917,cover=864
						88:leaf=58.8080215,cover=7431
					44:[f3<1921.5] yes=89,no=90,missing=89,gain=46258688,cover=4898
						89:leaf=74.4223404,cover=2118
						90:leaf=94.1894836,cover=2780
				22:[f2<1972.99097] yes=45,no=46,missing=46,gain=205875712,cover=27691
					45:[f2<354.350006] yes=91,no=92,missing=92,gain=69394432,cover=12712
						91:leaf=67.2075119,cover=1004
						92:leaf=39.7911034,cover=11708
					46:[f3<2174.4126] yes=93,no=94,missing=94,gain=58422784,cover=14979
						93:leaf=51.445797,cover=5849
						94:leaf=64.2846298,cover=9130
	2:[f0<6476.24219] yes=5,no=6,missing=6,gain=1.7843454e+10,cover=66057
		5:[f0<4134.45264] yes=11,no=12,missing=12,gain=3.43985357e+09,cover=54725
			11:[f5<28.2150002] yes=23,no=24,missing=23,gain=695775232,cover=37322
				23:[f4<3324.13501] yes=47,no=48,missing=47,gain=245339136,cover=12188
					47:[f0<3394.12305] yes=95,no=96,missing=96,gain=94664704,cover=9022
						95:leaf=95.4554367,cover=6242
						96:leaf=117.75956,cover=2780
					48:[f4<5878.5] yes=97,no=98,missing=98,gain=95689216,cover=3166
						97:leaf=128.127441,cover=2774
						98:leaf=181.347916,cover=392
				24:[f2<3204.5] yes=49,no=50,missing=49,gain=422621184,cover=25134
					49:[f4<2428.22266] yes=99,no=100,missing=99,gain=114016768,cover=12812
						99:leaf=61.3103752,cover=7783
						100:leaf=80.6676559,cover=5029
					50:[f3<3683.73389] yes=101,no=102,missing=102,gain=181542912,cover=12322
						101:leaf=83.9151077,cover=6808
						102:leaf=108.384598,cover=5514
			12:[f3<4305.5] yes=25,no=26,missing=26,gain=833875968,cover=17403
				25:[f5<219.240005] yes=51,no=52,missing=52,gain=514019328,cover=9220
					51:[f3<184.581497] yes=103,no=104,missing=104,gain=331433472,cover=5581
						103:leaf=185.162827,cover=475
						104:leaf=97.7712097,cover=5106
					52:[f0<4988.86719] yes=105,no=106,missing=106,gain=91687936,cover=3639
						105:leaf=140.847366,cover=2237
						106:leaf=173.870911,cover=1402
				26:[f5<221.240005] yes=53,no=54,missing=54,gain=389324800,cover=8183
					53:[f2<5559.5] yes=107,no=108,missing=107,gain=262604800,cover=6073
						107:leaf=133.761047,cover=2942
						108:leaf=175.554138,cover=3131
					54:[f4<8065.5] yes=109,no=110,missing=109,gain=170347520,cover=2110
						109:leaf=193.868195,cover=1824
						110:leaf=277.76593,cover=286
		6:[f5<221.240005] yes=13,no=14,missing=14,gain=3.2982057e+09,cover=11332
			13:[f2<7788.93799] yes=27,no=28,missing=27,gain=1.00378829e+09,cover=7330
				27:[f0<10962.5] yes=55,no=56,missing=56,gain=389280768,cover=3648
					55:[f3<7251] yes=111,no=112,missing=112,gain=189597696,cover=3304
						111:leaf=139.228638,cover=2035
						112:leaf=188.788269,cover=1269
					56:[f3<15103.5] yes=113,no=114,missing=113,gain=419046656,cover=344
						113:leaf=253.621384,cover=338
						114:leaf=1042.05383,cover=6
				28:[f0<16384] yes=57,no=58,missing=58,gain=510474240,cover=3682
					57:[f3<8036] yes=115,no=116,missing=115,gain=422780928,cover=3587
						115:leaf=210.455032,cover=2265
						116:leaf=282.069031,cover=1322
					58:[f0<16460] yes=117,no=118,missing=118,gain=750387584,cover=95
						117:leaf=1827.74121,cover=3
						118:leaf=408.540039,cover=92
			14:[f0<9623.5] yes=29,no=30,missing=30,gain=1.09531955e+09,cover=4002
				29:[f0<7638.72461] yes=59,no=60,missing=60,gain=252831744,cover=2640
					59:[f2<15601.5] yes=119,no=120,missing=119,gain=274369024,cover=1288
						119:leaf=251.793976,cover=1284
						120:leaf=-498.752197,cover=4
					60:[f4<14655.3535] yes=121,no=122,missing=121,gain=85013504,cover=1352
						121:leaf=306.202637,cover=1297
						122:leaf=439.044739,cover=55
				30:[f0<14546.2754] yes=61,no=62,missing=62,gain=174802944,cover=1362
					61:[f2<9255.72266] yes=123,no=124,missing=124,gain=79169536,cover=1260
						123:leaf=392.577423,cover=1068
						124:leaf=316.872192,cover=192
					62:[f0<19108.5] yes=125,no=126,missing=126,gain=159657472,cover=102
						125:leaf=553.593445,cover=96
						126:leaf=18.827673,cover=6
booster[13]
0:[f0<2487.69824] yes=1,no=2,missing=1,gain=8.38757745e+10,cover=1920456
	1:[f0<792.010986] yes=3,no=4,missing=3,gain=1.38642647e+10,cover=1854455
		3:[f1<264.325012] yes=7,no=8,missing=7,gain=2.25873254e+09,cover=1728037
			7:[f0<95.1295013] yes=15,no=16,missing=15,gain=416248160,cover=1549020
				15:[f1<37.8689995] yes=31,no=32,missing=31,gain=37233072,cover=1312177
					31:[f3<1277.2395] yes=63,no=64,missing=63,gain=28291654,cover=1195411
						63:leaf=-0.00379549223,cover=1193367
						64:leaf=-11.7759056,cover=2044
					32:[f4<3298.86963] yes=65,no=66,missing=65,gain=9471620,cover=116766
						65:leaf=1.87380445,cover=116663
						66:leaf=-28.3185425,cover=103
				16:[f0<359.798523] yes=33,no=34,missing=34,gain=99612352,cover=236843
					33:[f1<139.9935] yes=67,no=68,missing=68,gain=41477920,cover=212791
						67:leaf=2.08366656,cover=73389
						68:leaf=5.02091837,cover=139402
					34:[f1<528.604004] yes=69,no=70,missing=70,gain=36480928,cover=24052
						69:leaf=6.26597166,cover=10221
						70:leaf=14.1452351,cover=13831
			8:[f1<623.901978] yes=17,no=18,missing=18,gain=371145216,cover=179017
				17:[f1<398.169495] yes=35,no=36,missing=36,gain=59642624,cover=136179
					35:[f6<1392.5] yes=71,no=72,missing=72,gain=7587136,cover=72544
						71:leaf=6.98259306,cover=30357
						72:leaf=9.05658245,cover=42187
					36:[f6<4383.5] yes=73,no=74,missing=74,gain=9831424,cover=63635
						73:leaf=12.1702232,cover=61819
						74:leaf=19.6391602,cover=1816
				18:[f4<11716.0303] yes=37,no=38,missing=37,gain=371624320,cover=42838
					37:[f4<4546.5] yes=75,no=76,missing=75,gain=159406592,cover=42831
						75:leaf=20.3934975,cover=42729
						76:leaf=144.964096,cover=102
					38:leaf=702.361572,cover=7
		4:[f1<1750.91846] yes=9,no=10,missing=9,gain=2.16274022e+09,cover=126418
			9:[f1<1178.94507] yes=19,no=20,missing=20,gain=449907712,cover=96204
				19:[f1<36] yes=39,no=40,missing=40,gain=103792896,cover=51310
					39:[f0<1601.62549] yes=77,no=78,missing=78,gain=60040736,cover=969
						77:leaf=37.4790306,cover=649
						78:leaf=90.4717026,cover=320
					40:[f1<729.774536] yes=79,no=80,missing=80,gain=76850432,cover=50341
						79:leaf=15.853981,cover=14425
						80:leaf=24.4978199,cover=35916
				20:[f4<1315.94043] yes=41,no=42,missing=42,gain=118843904,cover=44894
					41:[f6<4201.5] yes=81,no=82,missing=82,gain=39659520,cover=23910
						81:leaf=30.2916546,cover=21891
						82:leaf=44.9541588,cover=2019
					42:[f0<1713.16309] yes=83,no=84,missing=84,gain=54425600,cover=20984
						83:leaf=38.2150497,cover=13924
						84:leaf=49.0103302,cover=7060
			10:[f1<2792.37451] yes=21,no=22,missing=22,gain=355166208,cover=30214
				21:[f1<2044.1615] yes=43,no=44,missing=44,gain=61589504,cover=23665
					43:[f6<593.5] yes=85,no=86,missing=86,gain=11478016,cover=10086
						85:leaf=12.7461195,cover=92
						86:leaf=48.3938255,cover=9994
					44:[f6<876.5] yes=87,no=88,missing=88,gain=56928768,cover=13579
						87:leaf=36.5749626,cover=1103
						88:leaf=60.3372459,cover=12476
				22:[f6<964.5] yes=45,no=46,missing=46,gain=123366144,cover=6549
					45:[f6<851.5] yes=89,no=90,missing=90,gain=18073588,cover=483
						89:leaf=13.5329361,cover=259
						90:leaf=52.3488274,cover=224
					46:[f4<31] yes=91,no=92,missing=92,gain=61204992,cover=6066
						91:leaf=115.683899,cover=565
						92:leaf=80.9504013,cover=5501
	2:[f1<5955.02637] yes=5,no=6,missing=5,gain=1.47896074e+10,cover=66001
		5:[f0<6444.67285] yes=11,no=12,missing=12,gain=3.46913178e+09,cover=53725
			11:[f1<3529.5] yes=23,no=24,missing=24,gain=1.97118771e+09,cover=49366
				23:[f1<46.5] yes=47,no=48,missing=48,gain=271329280,cover=26251
					47:[f6<1560] yes=93,no=94,missing=94,gain=147097792,cover=425
						93:leaf=53.9220886,cover=118
						94:leaf=185.817978,cover=307
					48:[f1<1969.82642] yes=95,no=96,missing=96,gain=334052352,cover=25826
						95:leaf=43.8419914,cover=4424
						96:leaf=74.046196,cover=21402
				24:[f6<1568.59253] yes=49,no=50,missing=50,gain=772569088,cover=23115
					49:[f6<1088.5] yes=97,no=98,missing=98,gain=205356032,cover=7169
						97:leaf=41.6393318,cover=1033
						98:leaf=89.8931274,cover=6136
					50:[f0<4296.5] yes=99,no=100,missing=100,gain=273201152,cover=15946
						99:leaf=112.038933,cover=9757
						100:leaf=138.970383,cover=6189
			12:[f6<4115.5] yes=25,no=26,missing=26,gain=1.82597632e+09,cover=4359
				25:[f6<3336.5] yes=51,no=52,missing=52,gain=247071744,cover=3911
					51:[f4<1619] yes=101,no=102,missing=102,gain=231878144,cover=3119
						101:leaf=78.973381,cover=432
						102:leaf=158.194046,cover=2687
					52:[f1<1668] yes=103,no=104,missing=103,gain=98688512,cover=792
						103:leaf=248.490921,cover=368
						104:leaf=176.243149,cover=424
				26:[f0<10522.6973] yes=53,no=54,missing=54,gain=155697152,cover=448
					53:[f3<162.791504] yes=105,no=106,missing=105,gain=136497664,cover=323
						105:leaf=533.47644,cover=32
						106:leaf=310.34198,cover=291
					54:[f3<13561.3926] yes=107,no=108,missing=107,gain=60094464,cover=125
						107:leaf=493.014221,cover=114
						108:leaf=218.17247,cover=11
		6:[f6<3780.5] yes=13,no=14,missing=14,gain=3.26052659e+09,cover=12276
			13:[f6<3204.5] yes=27,no=28,missing=28,gain=380137472,cover=8232
				27:[f4<306] yes=55,no=56,missing=56,gain=234532864,cover=5423
					55:[f1<7775.08496] yes=109,no=110,missing=110,gain=138380032,cover=501
						109:leaf=198.730743,cover=365
						110:leaf=318.814056,cover=136
					56:[f6<1387.5] yes=111,no=112,missing=112,gain=182382592,cover=4922
						111:leaf=62.4219551,cover=187
						112:leaf=163.552475,cover=4735
				28:[f0<16270.4121] yes=57,no=58,missing=58,gain=149168128,cover=2809
					57:[f1<9323] yes=113,no=114,missing=114,gain=115722240,cover=2769
						113:leaf=197.404083,cover=2118
						114:leaf=246.481689,cover=651
					58:[f0<20988] yes=115,no=116,missing=116,gain=38163392,cover=40
						115:leaf=352.705078,cover=36
						116:leaf=703.16449,cover=4
			14:[f1<9073] yes=29,no=30,missing=30,gain=779669504,cover=4044
				29:[f0<9616.5] yes=59,no=60,missing=60,gain=130702336,cover=1695
					59:[f4<10708] yes=117,no=118,missing=118,gain=124854272,cover=1311
						117:leaf=205.048615,cover=962
						118:leaf=276.178192,cover=349
					60:[f6<4254.5] yes=119,no=120,missing=120,gain=112838912,cover=384
						119:leaf=249.541412,cover=248
						120:leaf=366.714966,cover=136
				30:[f6<4743.5] yes=61,no=62,missing=62,gain=410996736,cover=2349
					61:[f1<13550.3926] yes=121,no=122,missing=122,gain=136464384,cover=1480
						121:leaf=280.224487,cover=1171
						122:leaf=357.19754,cover=309
					62:[f0<13276.5] yes=123,no=124,missing=124,gain=195874816,cover=869
						123:leaf=363.96933,cover=748
						124:leaf=505.660004,cover=121
booster[14]
0:[f0<2541.25684] yes=1,no=2,missing=1,gain=6.762206e+10,cover=1920253
	1:[f0<808.938965] yes=3,no=4,missing=3,gain=1.16095375e+10,cover=1856030
		3:[f1<290.875] yes=7,no=8,missing=7,gain=1.90477325e+09,cover=1730842
			7:[f0<95.1040039] yes=15,no=16,missing=15,gain=383872832,cover=1566936
				15:[f0<7.03249979] yes=31,no=32,missing=31,gain=32578016,cover=1312536
					31:[f3<10298.7695] yes=63,no=64,missing=63,gain=22878598,cover=951263
						63:leaf=-0.176162317,cover=951246
						64:leaf=112.565025,cover=17
					32:[f1<73.8990021] yes=65,no=66,missing=65,gain=11374058,cover=361273
						65:leaf=0.724776745,cover=314405
						66:leaf=2.39467525,cover=46868
				16:[f1<188.808502] yes=33,no=34,missing=34,gain=69786240,cover=254400
					33:[f1<119.997498] yes=67,no=68,missing=68,gain=12162688,cover=128955
						67:leaf=1.60105646,cover=54088
						68:leaf=3.56916046,cover=74867
					34:[f0<410.349487] yes=69,no=70,missing=70,gain=40487808,cover=125445
						69:leaf=5.34749556,cover=108542
						70:leaf=10.6090775,cover=16903
			8:[f3<10524.5352] yes=17,no=18,missing=17,gain=303539200,cover=163906
				17:[f1<676.009277] yes=35,no=36,missing=36,gain=284047872,cover=163892
					35:[f1<468.680481] yes=71,no=72,missing=72,gain=48331008,cover=127925
						71:leaf=8.41089249,cover=80495
						72:leaf=12.4354658,cover=47430
					36:[f0<0.5] yes=73,no=74,missing=74,gain=141970048,cover=35967
						73:leaf=59.4777412,cover=886
						74:leaf=18.9623871,cover=35081
				18:[f0<7] yes=37,no=38,missing=38,gain=122539744,cover=14
					37:leaf=605.442078,cover=11
					38:[f0<147.695496] yes=75,no=76,missing=76,gain=1091481,cover=3
						75:leaf=-114.068604,cover=2
						76:leaf=3.34559631,cover=1
		4:[f1<1770.02197] yes=9,no=10,missing=9,gain=1.76684544e+09,cover=125188
			9:[f1<1197.99341] yes=19,no=20,missing=20,gain=374484480,cover=94378
				19:[f1<36] yes=39,no=40,missing=40,gain=87497984,cover=50268
					39:[f0<1783.5] yes=77,no=78,missing=78,gain=47774672,cover=986
						77:leaf=36.7594948,cover=720
						78:leaf=86.4068909,cover=266
					40:[f1<838.997498] yes=79,no=80,missing=80,gain=66465536,cover=49282
						79:leaf=15.8344803,cover=20714
						80:leaf=23.2765465,cover=28568
				20:[f5<221.240005] yes=41,no=42,missing=42,gain=91472384,cover=44110
					41:[f3<1141.51904] yes=81,no=82,missing=82,gain=77266176,cover=28312
						81:leaf=22.0672646,cover=8630
						82:leaf=33.4218407,cover=19682
